
\data\
ngram 1=304
ngram 2=1095
ngram 3=2331
ngram 4=3251
ngram 5=3598
ngram 6=3515
ngram 7=3145

\1-grams:
-99	<s>	-1.322915
-1.291226	</s>
-1.14732	a}a	-0.8971638
-1.925471	b}b	-0.6191483
-1.548052	n}n	-0.5639062
-1.405946	t}t	-0.7298464
-1.275986	i}i	-0.661389
-3.039414	l}l|a	-0.1277866
-2.437354	l|l}l	-0.236931
-1.562293	k}k	-0.7168816
-3.039414	a|b}d	-0.1277866
-2.562293	a}i	-0.1277866
-1.624441	r}r	-0.479969
-2.562293	i}u	-0.1277866
-1.624441	z}z	-0.5759442
-3.039414	i|o}a	-0.1277866
-2.738384	s}l|e	-0.4288166
-1.291226	e}e	-0.7436976
-2.437354	t|s}s	-0.3708246
-1.960233	s}s	-0.5671192
-1.483111	u}u	-0.8002265
-2.039414	d}d	-0.6049079
-2.085171	m}m	-0.5379611
-2.738384	d|u}_	-0.1277866
-2.194316	h}h	-0.4702093
-2.085171	t|z}z	-0.5614421
-1.835294	g}g	-0.7878385
-2.261263	i}e	-0.1277866
-2.437354	p|h}p	-0.3319066
-2.261263	t|h}t	-0.4868085
-1.5209	o}o	-0.5443865
-3.039414	g}-|g	-0.1277866
-1.863323	l}l	-0.4288166
-3.039414	a}h|a	-0.1277866
-2.039414	k|h}k	-0.6329365
-3.039414	m|e}z	-0.1277866
-3.039414	n|d}i	-0.1277866
-2.194316	u}o	-0.2826885
-3.039414	ñ}n	-0.1277866
-3.039414	l}h|a	-0.1277866
-3.039414	b}l|_	-0.1277866
-3.039414	a}b|a	-0.1277866
-2.194316	o}u	-0.3830591
-2.738384	a}e|n	-0.4288166
-2.194316	k}_	-0.2527254
-2.562293	r}d	-0.3038778
-2.437354	n|h}n	-0.4288166
-2.437354	n}n|t	-0.7298465
-1.998021	a}e	-0.3196721
-2.261263	p}p	-0.403993
-2.261263	i|t}t	-0.2739146
-2.738384	z|e}e	-0.1277866
-3.039414	e}e|s	-0.1277866
-2.437354	k}e|k	-0.7298466
-2.340444	i|n}i	-0.2069678
-3.039414	i|ñ}i	-0.1277866
-2.085171	e}a	-0.2069678
-2.562293	k}g	-0.4288166
-3.039414	e|i}_	-0.1277866
-3.039414	ñ|o}e	-0.1277866
-2.738384	i}r|a	-0.4288166
-3.039414	ñ}i|n	-0.1277866
-3.039414	t}r	-0.1277866
-3.039414	d}t	-0.1277866
-3.039414	z|t}_	-0.1277866
-2.136324	a}_	-0.4288166
-2.738384	t}i|t	-0.1277866
-2.738384	x}z	-0.1277866
-2.194316	u}_	-0.1947334
-2.738384	t|z}d	-0.1277866
-2.437354	a|i}a	-0.2527253
-2.738384	z}t|z	-0.1277866
-2.085171	e}i	-0.2660892
-3.039414	r}z	-0.1277866
-2.562293	a}k|i	-0.1277866
-2.340444	t|z}_	-0.1277866
-3.039414	i}a|i	-0.1277866
-2.738384	k|a}o	-0.2739146
-2.738384	e}i|t	-0.1277866
-2.340444	_}z|a	-0.2246966
-2.261263	e|i}e	-0.2739146
-2.738384	r}r|a	-0.1277866
-2.562293	u|r}u	-0.1277866
-3.039414	t|a}_	-0.1277866
-2.437354	t}_	-0.2069678
-2.738384	t}e|t	-0.4288166
-2.738384	d|u}u	-0.2527253
-2.437354	z|e}z	-0.2527253
-2.261263	r|a}i	-0.4635787
-2.738384	u}z|k	-0.4288166
-2.738384	a}i|o	-0.3038778
-3.039414	e}e|n	-0.1277866
-2.738384	o}a	-0.1277866
-2.738384	r}t	-0.1277866
-2.437354	l|h}l	-0.3708246
-3.039414	b}a	-0.1277866
-3.039414	e|n}r	-0.1277866
-3.039414	a|l}n	-0.1277866
-3.039414	b}i|r	-0.1277866
-3.039414	n}b|a	-0.1277866
-2.194316	t|z}t	-0.4288166
-2.738384	i}d|i	-0.1277866
-2.562293	t|k}k	-0.2527253
-2.194316	e}_	-0.1277866
-2.738384	o}t|a	-0.1277866
-2.738384	z}i|z	-0.1277866
-3.039414	o|r}u	-0.1277866
-2.738384	o}e	-0.1277866
-2.562293	a}a|r	-0.1277866
-2.562293	n}e|n	-0.3038778
-3.039414	r}s	-0.1277866
-3.039414	z}e	-0.1277866
-2.562293	è}e|e	-0.3038778
-3.039414	è}a|i	-0.1277866
-3.039414	é}a|i	-0.1277866
-3.039414	n}i|n	-0.1277866
-2.738384	i}n|_	-0.3038778
-2.738384	n}d|i	-0.4288166
-3.039414	r|z}s	-0.1277866
-3.039414	o|g}g	-0.1277866
-2.738384	u|n}u	-0.1277866
-3.039414	n}o|n	-0.1277866
-2.738384	k}t	-0.1277866
-2.738384	v}v	-0.4288166
-2.738384	t}d	-0.1277866
-2.738384	_}d|a	-0.1277866
-2.738384	d}r	-0.1277866
-3.039414	i}k|i	-0.1277866
-3.039414	d|e}d	-0.1277866
-3.039414	u}z	-0.1277866
-3.039414	t}k|i	-0.1277866
-3.039414	d}e|s	-0.1277866
-2.562293	_}n|_	-0.1277866
-2.738384	r}e|z	-0.4288166
-3.039414	d}g	-0.1277866
-2.738384	e|s}o	-0.1277866
-3.039414	i|r}g	-0.1277866
-2.340444	s}t|s	-0.1691792
-2.340444	_}u	-0.2246966
-3.039414	d|e}n	-0.1277866
-3.039414	s}a|h	-0.1277866
-3.039414	k|o}i	-0.1277866
-3.039414	n|s}g	-0.1277866
-3.039414	o|l}a	-0.1277866
-3.039414	a}b|e	-0.1277866
-2.340444	_}e|z	-0.8267566
-3.039414	a}e|z	-0.1277866
-3.039414	z}a|i	-0.1277866
-3.039414	f}s|b	-0.1277866
-3.039414	e}d|i	-0.1277866
-3.039414	i}a|s	-0.1277866
-3.039414	a}u|n	-0.1277866
-2.562293	k}a|k	-0.3038778
-2.738384	e}n|e	-0.1277866
-3.039414	n}n|_	-0.1277866
-3.039414	o}h|o	-0.1277866
-2.562293	r}r|e	-0.1277866
-2.738384	n|e}_	-0.1277866
-3.039414	d}d|a	-0.1277866
-2.562293	h|a}a	-0.1277866
-3.039414	t}_|e	-0.1277866
-2.738384	z}z|_	-0.1277866
-3.039414	j}g	-0.1277866
-2.738384	f}f	-0.3038778
-3.039414	t}t|e	-0.1277866
-3.039414	g}n|g	-0.1277866
-3.039414	m}m|a	-0.1277866
-3.039414	o}i|e	-0.1277866
-3.039414	_}i|o	-0.1277866
-3.039414	e|n}a	-0.1277866
-3.039414	s}h|a	-0.1277866
-2.738384	e}l|e	-0.1277866
-3.039414	i}g|i	-0.1277866
-2.738384	u}n	-0.1277866
-2.738384	h|i}i	-0.1277866
-3.039414	h|o}o	-0.1277866
-3.039414	r|r}r	-0.1277866
-2.738384	-}-	-0.3038778
-3.039414	e|r}z	-0.1277866
-2.562293	r|e}_	-0.1277866
-3.039414	t|a}n	-0.1277866
-3.039414	e|r}l	-0.1277866
-3.039414	r|e}i	-0.1277866
-3.039414	i|n}n	-0.1277866
-3.039414	e|r}b	-0.1277866
-3.039414	r|e}a	-0.1277866
-3.039414	p|a}n	-0.1277866
-3.039414	r|t}a	-0.1277866
-3.039414	k}r	-0.1277866
-3.039414	e|s}i	-0.1277866
-3.039414	k}z|k	-0.1277866
-3.039414	i|b}i	-0.1277866
-2.738384	i}_	-0.1277866
-3.039414	e}t|e	-0.1277866
-3.039414	s|p}x	-0.1277866
-3.039414	a}o|p	-0.1277866
-3.039414	t}a|_	-0.1277866
-3.039414	t|u}n	-0.1277866
-3.039414	r|i}i	-0.1277866
-3.039414	p|o}a	-0.1277866
-3.039414	r}i	-0.1277866
-2.562293	x}x	-0.1277866
-3.039414	t}z|_	-0.1277866
-2.738384	e}d	-0.1277866
-3.039414	x}t|s	-0.1277866
-3.039414	k}_|g	-0.1277866
-3.039414	p}_|b	-0.1277866
-3.039414	t}_|d	-0.1277866
-3.039414	d|i}_	-0.1277866
-3.039414	e}u|k	-0.1277866
-3.039414	r}e|r	-0.1277866
-2.738384	a}o	-0.1277866
-3.039414	t}t|i	-0.1277866
-3.039414	g}k	-0.1277866
-2.437354	è}e	-0.4288165
-3.039414	l}l|e	-0.1277866
-3.039414	a}r|a	-0.1277866
-3.039414	s}s|t	-0.1277866
-3.039414	g|o}s	-0.1277866
-2.738384	l|a}a	-0.1277866
-3.039414	d|o}i	-0.1277866
-2.738384	l}z	-0.1277866
-3.039414	t}t|x	-0.1277866
-3.039414	b|e}p	-0.1277866
-3.039414	h|e}e	-0.1277866
-3.039414	a|p}e	-0.1277866
-3.039414	e}o	-0.1277866
-3.039414	z|-}z	-0.1277866
-3.039414	h}h|a	-0.1277866
-3.039414	e}i|e	-0.1277866
-3.039414	h|e}i	-0.1277866
-3.039414	r|s}x	-0.1277866
-3.039414	-}i	-0.1277866
-3.039414	i}j	-0.1277866
-3.039414	t}t|z	-0.1277866
-3.039414	k}i|k	-0.1277866
-2.738384	b}p	-0.1277866
-3.039414	f}n|f	-0.1277866
-3.039414	s}s|_	-0.1277866
-3.039414	i|l}i	-0.1277866
-3.039414	t}r|i	-0.1277866
-3.039414	k}t|s	-0.1277866
-3.039414	_}e|g	-0.1277866
-3.039414	d}_|i	-0.1277866
-3.039414	a}a|l	-0.1277866
-3.039414	r}a|r	-0.1277866
-3.039414	p|h}f	-0.1277866
-3.039414	t}n	-0.1277866
-3.039414	s|-}s	-0.1277866
-3.039414	i|u}z	-0.1277866
-3.039414	m|e}n	-0.1277866
-3.039414	n|t}_	-0.1277866
-3.039414	u|r}_	-0.1277866
-2.738384	x}s	-0.1277866
-3.039414	n}i|t	-0.1277866
-3.039414	f}f|o	-0.1277866
-3.039414	k}a|i	-0.1277866
-3.039414	o|f}t	-0.1277866
-2.738384	a}r	-0.3038778
-3.039414	a}r|t	-0.1277866
-3.039414	a|t}r	-0.1277866
-2.738384	s}t|z	-0.1277866
-3.039414	e|s}_	-0.1277866
-3.039414	z|k}k	-0.1277866
-3.039414	z}k|e	-0.1277866
-3.039414	i|n}_	-0.1277866
-3.039414	z}z|i	-0.1277866
-3.039414	d|i}o	-0.1277866
-3.039414	i}_|d	-0.1277866
-3.039414	h|a}_	-0.1277866
-3.039414	r}r|i	-0.1277866
-3.039414	b}g	-0.1277866
-3.039414	k|a}_	-0.1277866
-3.039414	n|e}b	-0.1277866
-3.039414	s|i}h	-0.1277866
-2.738384	t|e}r	-0.1277866
-3.039414	o|b}b	-0.1277866
-3.039414	l}e|h	-0.1277866
-3.039414	i|g}a	-0.1277866
-3.039414	ñ|h}n	-0.1277866
-3.039414	é}e	-0.1277866
-3.039414	i}i|n	-0.1277866
-3.039414	d}n|d	-0.1277866
-3.039414	k}n|g	-0.1277866
-3.039414	a|z}o	-0.1277866
-3.039414	o}t|z	-0.1277866
-3.039414	a|k}n	-0.1277866
-3.039414	p|r}p	-0.1277866
-3.039414	e}e|r	-0.1277866
-3.039414	b}b|r	-0.1277866
-3.039414	p}a|p	-0.1277866
-3.039414	i}i|o	-0.1277866
-3.039414	p|u}m	-0.1277866
-3.039414	r}a|l	-0.1277866
-3.039414	p|u}k	-0.1277866
-3.039414	i|l}o	-0.1277866
-3.039414	s}e|s	-0.1277866
-3.039414	e|n}e	-0.1277866
-3.039414	x}t|x	-0.1277866
-3.039414	z|i}z	-0.1277866
-3.039414	_}o	-0.1277866
-3.039414	z|k}e	-0.1277866
-3.039414	o|n}n	-0.1277866
-3.039414	u}e|z	-0.1277866

\2-grams:
-1.074702	<s> a}a	-0.737159
-0.9398773	<s> b}b	-1.320112
-2.048916	<s> n}n	-0.2487567
-1.803218	<s> t}t	-0.9689161
-1.219566	<s> i}i	-0.667886
-1.525611	<s> k}k	-0.8720059
-3.508566	<s> a|b}d	-0.123818
-1.408352	<s> z}z	-0.6920196
-0.788506	<s> e}e	-0.9891192
-1.427145	<s> s}s	-0.8350224
-1.569694	<s> u}u	-0.6766599
-1.350335	<s> d}d	-0.8541968
-1.879107	<s> m}m	-0.9367313
-1.351605	<s> h}h	-1.058316
-1.476408	<s> g}g	-0.9299981
-3.356245	<s> p|h}p	-0.123818
-2.803225	<s> t|h}t	-0.123818
-1.416684	<s> o}o	-0.6801205
-1.704513	<s> l}l	-0.5574736
-2.867716	<s> a}h|a	-0.123818
-2.415794	<s> k|h}k	-0.725878
-1.418118	<s> p}p	-0.8469215
-3.451647	<s> e}i|t	-0.123818
-2.334944	<s> z|e}z	-0.822788
-3.508566	<s> b}a	-0.123818
-3.508566	<s> b}i|r	-0.123818
-3.243698	<s> e}_	-0.123818
-3.451647	<s> v}v	-0.123818
-3.451647	<s> _}d|a	-0.123818
-1.673039	<s> d|e}d	-1.446037
-2.867716	<s> d}e|s	-0.424848
-3.508566	<s> d}g	-0.123818
-3.508566	<s> d|e}n	-0.123818
-2.347352	<s> d}d|a	-0.822788
-3.401332	<s> h|a}a	-0.123818
-2.854029	<s> f}f	-0.424848
-3.508566	<s> e|n}a	-0.123818
-2.611629	<s> h|i}i	-0.2999092
-3.508566	<s> e|r}z	-0.123818
-2.867716	<s> e|r}l	-0.424848
-3.508566	<s> e|r}b	-0.123818
-2.867716	<s> e|s}i	-0.424848
-3.451647	<s> e}d	-0.123818
-2.867716	<s> g}k	-0.424848
-3.508566	<s> g|o}s	-0.123818
-3.451647	<s> l}z	-0.123818
-2.117349	<s> h}h|a	-0.725878
-3.508566	<s> h|e}i	-0.123818
-1.121341	<s> i}j	-1.385081
-2.867716	<s> i|l}i	-0.424848
-3.508566	<s> _}e|g	-0.123818
-2.117349	<s> i|u}z	-1.026908
-3.451647	<s> x}s	-0.123818
-2.061568	<s> k}a|i	-1.07806
-2.867716	<s> n|e}b	-0.424848
-3.508566	<s> o|b}b	-0.123818
-2.181365	<s> p|r}p	-0.667886
-2.867716	<s> p}a|p	-0.424848
-3.508566	<s> p|u}m	-0.123818
-3.508566	<s> s}e|s	-0.123818
-3.508566	<s> x}t|x	-0.123818
-1.003557	a}a </s>
-1.481701	a}a b}b	-0.5709761
-1.032032	a}a n}n	-0.6128383
-1.025587	a}a t}t	-0.8685453
-1.207603	a}a i}i	-0.424848
-1.083178	a}a k}k	-0.6466969
-0.9350902	a}a r}r	-0.7952042
-1.186417	a}a z}z	-0.5387914
-2.089769	a}a t|s}s	-0.2999092
-1.644666	a}a s}s	-0.2329625
-1.594462	a}a u}u	-0.2621207
-1.80605	a}a d}d	-0.424848
-1.809277	a}a m}m	-0.3790905
-2.775446	a}a h}h	-0.123818
-1.809277	a}a t|z}z	-0.220728
-1.434953	a}a g}g	-0.5709762
-2.325022	a}a p|h}p	-0.220728
-2.30428	a}a t|h}t	-0.123818
-1.578192	a}a l}l	-0.3346713
-1.912633	a}a k|h}k	-0.4917949
-2.35812	a}a m|e}z	-0.424848
-3.007563	a}a l}h|a	-0.123818
-2.071614	a}a k}_	-0.2999092
-2.325022	a}a n|h}n	-0.123818
-2.325022	a}a n}n|t	-0.424848
-2.077582	a}a p}p	-0.2999093
-1.819106	a}a i|t}t	-0.822788
-2.959215	a}a t}i|t	-0.123818
-1.925141	a}a u}_	-0.2487567
-2.959215	a}a r}r|a	-0.123818
-2.959215	a}a d|u}u	-0.123818
-2.876178	a}a z|e}z	-0.123818
-2.959215	a}a u}z|k	-0.123818
-2.959215	a}a r}t	-0.123818
-2.876178	a}a l|h}l	-0.123818
-1.951293	a}a n}i|n	-0.220728
-2.959215	a}a u|n}u	-0.123818
-2.959215	a}a v}v	-0.123818
-2.959215	a}a _}d|a	-0.123818
-3.007563	a}a i}k|i	-0.123818
-2.839942	a}a _}u	-0.123818
-3.007563	a}a k}r	-0.123818
-2.35812	a}a t|u}n	-0.123818
-3.007563	a}a z|-}z	-0.123818
-3.007563	a}a k}i|k	-0.123818
-3.007563	a}a s|-}s	-0.123818
-3.007563	a}a z}k|e	-0.123818
-3.007563	a}a b}g	-0.123818
-2.959215	a}a t|e}r	-0.123818
-3.007563	a}a i}i|n	-0.123818
-0.6000665	b}b a}a	-0.3376978
-0.9291205	b}b i}i	-0.1695755
-1.856059	b}b r}r	-0.123818
-0.6084982	b}b e}e	-0.2787199
-1.093445	b}b u}u	-0.2999093
-1.097006	b}b o}o	-0.220728
-1.93873	b}b l}l	-0.123818
-2.010588	b}b o}u	-0.123818
-1.973174	b}b a}e	-0.123818
-2.040928	b}b a|i}a	-0.123818
-0.6890902	n}n </s>
-0.9543791	n}n a}a	-0.4662406
-1.592331	n}n b}b	-0.123818
-1.138773	n}n t}t	-0.424848
-1.064046	n}n i}i	-0.424848
-1.999911	n}n k}k	-0.123818
-1.066563	n}n e}e	-0.4483291
-2.258447	n}n s}s	-0.123818
-1.50446	n}n u}u	-0.2487567
-1.263432	n}n d}d	-0.5631506
-2.519658	n}n d|u}_	-0.123818
-2.321731	n}n t|z}z	-0.123818
-1.784807	n}n g}g	-0.123818
-2.395835	n}n i}e	-0.123818
-1.968596	n}n o}o	-0.123818
-2.557041	n}n g}-|g	-0.123818
-2.278534	n}n a}e	-0.123818
-1.856347	n}n p}p	-0.123818
-2.485239	n}n k}g	-0.123818
-1.646372	n}n d}t	-0.4248479
-2.345055	n}n a}_	-0.123818
-2.321731	n}n e}i	-0.123818
-2.395835	n}n e|i}e	-0.123818
-2.519658	n}n d|u}u	-0.123818
-2.369703	n}n t|z}t	-0.123818
-2.519658	n}n i}d|i	-0.123818
-1.636885	n}n t|k}k	-0.2999092
-2.369703	n}n e}_	-0.123818
-1.864195	n}n s}t|s	-0.123818
-2.557041	n}n t}_|e	-0.123818
-2.557041	n}n t}t|e	-0.123818
-2.519658	n}n -}-	-0.123818
-2.519658	n}n b}p	-0.123818
-2.557041	n}n d}_|i	-0.123818
-2.519658	n}n s}t|z	-0.123818
-2.557041	n}n z|k}k	-0.123818
-2.557041	n}n é}e	-0.123818
-1.235205	t}t </s>
-0.8378579	t}t a}a	-0.6009392
-1.063985	t}t i}i	-0.3157035
-1.79473	t}t r}r	-0.123818
-0.9285073	t}t z}z	-0.5387913
-0.7482324	t}t e}e	-0.6186679
-1.29501	t}t s}s	-0.3790905
-0.8597626	t}t u}u	-0.7036016
-2.47097	t}t i}e	-0.123818
-1.346681	t}t o}o	-0.269946
-2.449649	t}t u}o	-0.123818
-2.449649	t}t k}_	-0.123818
-2.409913	t}t e}a	-0.123818
-2.596825	t}t e|i}_	-0.123818
-2.409913	t}t e}i	-0.123818
-2.596825	t}t i}a|i	-0.123818
-2.493391	t}t _}z|a	-0.123818
-2.517032	t}t z|e}z	-0.123818
-2.568567	t}t o}a	-0.123818
-2.596825	t}t z}e	-0.123818
-2.542036	t}t è}e|e	-0.123818
-2.493391	t}t _}u	-0.123818
-2.568567	t}t z}z|_	-0.123818
-2.568567	t}t i}_	-0.123818
-2.542036	t}t x}x	-0.123818
-2.568567	t}t a}o	-0.123818
-2.596825	t}t z}z|i	-0.123818
-1.120269	i}i </s>
-1.152204	i}i a}a	-0.5631507
-1.866826	i}i b}b	-0.2999092
-1.289715	i}i n}n	-0.2403236
-1.010497	i}i t}t	-0.6264937
-2.84086	i}i l}l|a	-0.123818
-1.441455	i}i l|l}l	-0.4917948
-1.182073	i}i k}k	-0.8508165
-1.187367	i}i r}r	-0.6244203
-1.298225	i}i z}z	-0.3346713
-1.249502	i}i e}e	-0.3926633
-2.690358	i}i t|s}s	-0.123818
-1.873239	i}i s}s	-0.123818
-2.075044	i}i u}u	-0.123818
-1.886354	i}i d}d	-0.2999092
-2.10161	i}i m}m	-0.123818
-2.124038	i}i h}h	-0.4248479
-1.646891	i}i t|z}z	-0.366856
-1.719784	i}i g}g	-0.2487566
-2.160013	i}i p|h}p	-0.123818
-2.135702	i}i t|h}t	-0.2999092
-1.377144	i}i o}o	-0.3926633
-1.543315	i}i l}l	-0.2999092
-2.490126	i}i k|h}k	-0.123818
-1.793802	i}i ñ}n	-0.3456667
-2.784696	i}i a}e|n	-0.123818
-2.690358	i}i n|h}n	-0.123818
-2.160013	i}i n}n|t	-0.424848
-1.879747	i}i a}e	-0.2487567
-2.135702	i}i p}p	-0.123818
-1.935655	i}i k}g	-0.2999092
-2.112679	i}i a}_	-0.123818
-2.784696	i}i x}z	-0.123818
-2.185766	i}i z}t|z	-0.2999092
-2.649905	i}i t|z}_	-0.123818
-2.185766	i}i k|a}o	-0.2487567
-2.160013	i}i l|h}l	-0.123818
-2.84086	i}i a|l}n	-0.123818
-2.578803	i}i t|z}t	-0.123818
-2.578803	i}i e}_	-0.123818
-2.84086	i}i o|g}g	-0.123818
-2.784696	i}i t}d	-0.123818
-2.784696	i}i d}r	-0.123818
-2.147687	i}i _}e|z	-0.424848
-1.950833	i}i a}e|z	-0.6009392
-2.734971	i}i r}r|e	-0.123818
-2.84086	i}i t|a}n	-0.123818
-2.734971	i}i x}x	-0.123818
-2.84086	i}i t}t|i	-0.123818
-2.84086	i}i s}s|t	-0.123818
-2.84086	i}i t}t|z	-0.123818
-2.784696	i}i b}p	-0.123818
-2.84086	i}i f}n|f	-0.123818
-2.784696	i}i x}s	-0.123818
-2.84086	i}i d|i}o	-0.123818
-2.84086	i}i r}r|i	-0.123818
-2.84086	i}i ñ|h}n	-0.123818
-2.84086	i}i d}n|d	-0.123818
-2.84086	i}i k}n|g	-0.123818
-2.84086	i}i z|k}e	-0.123818
-0.5331214	l}l|a </s>
-0.7430071	l|l}l a}a	-0.220728
-1.229012	l|l}l i}i	-0.123818
-1.236871	l|l}l e}e	-0.123818
-0.8000083	l|l}l u}u	-0.220728
-1.466684	l|l}l a}e	-0.123818
-1.487364	l|l}l a}_	-0.123818
-1.524181	l|l}l a}k|i	-0.123818
-0.7820101	k}k </s>
-1.030162	k}k a}a	-0.1907648
-1.943145	k}k t}t	-0.123818
-0.8227771	k}k i}i	-0.4760006
-1.627628	k}k r}r	-0.123818
-0.9805253	k}k e}e	-0.3456667
-1.392815	k}k u}u	-0.123818
-2.308586	k}k i}e	-0.123818
-0.7537165	k}k o}o	-0.4248479
-2.187676	k}k l}l	-0.123818
-2.293365	k}k u}_	-0.123818
-2.264436	k}k e}i	-0.123818
-1.297843	k}k e|i}e	-0.424848
-1.713	k}k a}i|o	-0.123818
-1.693778	k}k e}_	-0.424848
-2.393896	k}k e}o	-0.123818
-2.393896	k}k a}a|l	-0.123818
-0.5901626	a|b}d a}i	-0.123818
-0.9422316	a}i t}t	-0.123818
-0.9886023	a}i r}r	-0.123818
-1.063847	a}i u}n	-0.123818
-1.222468	r}r </s>
-0.9315434	r}r a}a	-0.5166184
-2.186667	r}r b}b	-0.123818
-1.922635	r}r n}n	-0.123818
-1.446347	r}r t}t	-0.3870594
-0.8197924	r}r i}i	-0.5359985
-1.662571	r}r k}k	-0.424848
-1.293779	r}r r}r	-0.4025716
-2.458166	r}r i}u	-0.123818
-1.044709	r}r e}e	-0.269946
-1.268685	r}r u}u	-0.123818
-1.8041	r}r d}d	-0.123818
-2.129973	r}r g}g	-0.123818
-1.459766	r}r t|h}t	-0.5497868
-1.36797	r}r o}o	-0.123818
-1.8041	r}r k|h}k	-0.424848
-1.829951	r}r u}o	-0.123818
-2.328666	r}r o}u	-0.123818
-2.229042	r}r a}e	-0.123818
-2.276004	r}r e}a	-0.123818
-2.497625	r}r t|z}d	-0.123818
-2.497625	r}r z}t|z	-0.123818
-2.276004	r}r e}i	-0.123818
-2.357603	r}r e|i}e	-0.123818
-2.458166	r}r u|r}u	-0.123818
-1.886786	r}r e}e|n	-0.123818
-2.328666	r}r t|z}t	-0.123818
-2.328666	r}r e}_	-0.123818
-2.541031	r}r è}a|i	-0.123818
-2.541031	r}r é}a|i	-0.123818
-2.497625	r}r k}t	-0.123818
-2.388607	r}r s}t|s	-0.123818
-2.541031	r}r e}d|i	-0.123818
-2.458166	r}r h|a}a	-0.123818
-2.497625	r}r e}l|e	-0.123818
-2.497625	r}r h|i}i	-0.123818
-1.886786	r}r h|o}o	-0.123818
-2.458166	r}r r|e}_	-0.123818
-2.541031	r}r i|b}i	-0.123818
-2.541031	r}r a}o|p	-0.123818
-2.421996	r}r è}e	-0.123818
-2.541031	r}r d|o}i	-0.123818
-2.541031	r}r a|p}e	-0.123818
-2.541031	r}r i}i|o	-0.123818
-0.9921201	i}u </s>
-1.177523	i}u l|l}l	-0.123818
-1.089283	i}u z}z	-0.123818
-1.127187	i}u g}g	-0.123818
-1.06817	z}z </s>
-0.9020831	z}z a}a	-0.3074624
-2.215961	z}z b}b	-0.123818
-1.320223	z}z t}t	-0.220728
-1.011207	z}z i}i	-0.3456667
-1.169572	z}z k}k	-0.2999092
-2.43684	z}z a}i	-0.123818
-2.43684	z}z i}u	-0.123818
-2.498616	z}z i|o}a	-0.123818
-1.06817	z}z e}e	-0.3522973
-0.7929482	z}z u}u	-0.618668
-1.562675	z}z i}e	-0.424848
-1.961335	z}z o}o	-0.123818
-2.334688	z}z k}_	-0.123818
-2.252046	z}z a}e	-0.123818
-2.358063	z}z i|t}t	-0.123818
-1.805861	z}z i|n}i	-0.424848
-1.779727	z}z e}a	-0.123818
-2.312507	z}z a}_	-0.123818
-2.334688	z}z u}_	-0.123818
-2.291404	z}z e}i	-0.123818
-1.826549	z}z e}i|t	-0.424848
-1.812648	z}z t}_	-0.123818
-1.83367	z}z t}k|i	-0.424848
-2.498616	z}z k}_|g	-0.123818
-2.498616	z}z p}_|b	-0.123818
-2.498616	z}z t}_|d	-0.123818
-2.408963	z}z è}e	-0.123818
-2.498616	z}z -}i	-0.123818
-2.498616	z}z e|n}e	-0.123818
-2.498616	z}z u}e|z	-0.123818
-0.5913143	i|o}a s}l|e	-0.123818
-0.1844298	s}l|e a}a	-0.424848
-1.109943	e}e </s>
-1.066795	e}e a}a	-0.8227881
-1.911732	e}e b}b	-0.123818
-0.8800464	e}e n}n	-0.67152
-1.122094	e}e t}t	-0.6801205
-1.617031	e}e i}i	-0.2487567
-1.108824	e}e k}k	-0.6589313
-1.001751	e}e r}r	-0.4760005
-1.195703	e}e z}z	-0.3870594
-2.201594	e}e t|s}s	-0.123818
-1.676592	e}e s}s	-0.269946
-2.150279	e}e u}u	-0.123818
-1.929615	e}e d}d	-0.123818
-2.14811	e}e m}m	-0.123818
-2.638938	e}e h}h	-0.123818
-2.14811	e}e t|z}z	-0.424848
-1.581683	e}e g}g	-0.4248479
-2.744208	e}e p|h}p	-0.123818
-2.179404	e}e t|h}t	-0.1238179
-1.208235	e}e l}l	-0.5091689
-1.929615	e}e k|h}k	-0.2999092
-2.224979	e}e a}e|n	-0.424848
-1.967753	e}e n}n|t	-0.6009392
-2.671274	e}e i|t}t	-0.123818
-2.831913	e}e i}r|a	-0.123818
-2.883448	e}e z|t}_	-0.123818
-2.831913	e}e r}r|a	-0.123818
-2.213129	e}e u|r}u	-0.424848
-2.883448	e}e t|a}_	-0.123818
-2.744208	e}e t}_	-0.123818
-2.831913	e}e o}a	-0.123818
-2.201594	e}e l|h}l	-0.123818
-2.638938	e}e t|z}t	-0.123818
-2.831913	e}e z}i|z	-0.123818
-2.785851	e}e a}a|r	-0.123818
-2.785851	e}e n}e|n	-0.123818
-2.883448	e}e r}s	-0.123818
-1.711978	e}e i}n|_	-0.521758
-2.213129	e}e _}n|_	-0.123818
-2.831913	e}e n|e}_	-0.123818
-2.831913	e}e z}z|_	-0.123818
-2.883448	e}e j}g	-0.123818
-2.831913	e}e f}f	-0.123818
-2.883448	e}e m}m|a	-0.123818
-2.883448	e}e r|r}r	-0.123818
-2.785851	e}e r|e}_	-0.123818
-2.785851	e}e x}x	-0.123818
-2.883448	e}e t}z|_	-0.123818
-2.883448	e}e x}t|s	-0.123818
-2.883448	e}e l}l|e	-0.123818
-2.883448	e}e p|h}f	-0.123818
-2.883448	e}e t}n	-0.123818
-2.883448	e}e a|k}n	-0.123818
-2.883448	e}e z|i}z	-0.123818
-0.3172182	t|s}s t}t	-0.3456668
-1.229393	t|s}s i}i	-0.123818
-1.31804	t|s}s k}k	-0.123818
-1.434112	t|s}s b|e}p	-0.123818
-0.9564065	s}s </s>
-0.9355328	s}s a}a	-0.2109681
-1.870832	s}s n}n	-0.123818
-0.8858248	s}s t}t	-0.3456667
-0.9544668	s}s i}i	-0.2329625
-1.878888	s}s k}k	-0.123818
-1.912694	s}s z}z	-0.123818
-0.875215	s}s e}e	-0.269946
-0.9762946	s}s u}u	-0.1907648
-1.4355	s}s o}o	-0.123818
-1.522805	s}s p}p	-0.123818
-2.153019	s}s i|n}i	-0.123818
-2.16858	s}s a|i}a	-0.123818
-2.218915	s}s i|n}n	-0.123818
-2.218915	s}s p|o}a	-0.123818
-2.16858	s}s è}e	-0.123818
-0.8920494	u}u </s>
-1.117572	u}u a}a	-0.6936933
-1.031023	u}u n}n	-0.618668
-1.060642	u}u t}t	-0.6009392
-1.983067	u}u i}i	-0.123818
-1.159022	u}u k}k	-0.5631507
-1.03441	u}u r}r	-0.424848
-1.03441	u}u z}z	-0.521758
-1.13608	u}u e}e	-0.5091688
-2.587412	u}u t|s}s	-0.123818
-1.230171	u}u s}s	-0.5217581
-1.945856	u}u d}d	-0.123818
-2.520029	u}u h}h	-0.123818
-1.719943	u}u t|z}z	-0.2999092
-1.553715	u}u g}g	-0.424848
-1.555969	u}u l}l	-0.725878
-1.945856	u}u k|h}k	-0.2999092
-2.612416	u}u r}d	-0.123818
-2.587412	u}u n|h}n	-0.123818
-1.968628	u}u i|t}t	-0.123818
-2.587412	u}u k}e|k	-0.123818
-2.638947	u}u t}e|t	-0.123818
-2.612416	u}u t|k}k	-0.123818
-2.667205	u}u n}n|_	-0.123818
-2.667205	u}u t}t|x	-0.123818
-2.667205	u}u s}s|_	-0.123818
-2.667205	u}u k|a}_	-0.123818
-0.6031821	d}d a}a	-0.2585165
-0.8738446	d}d i}i	-0.2377613
-0.6833424	d}d e}e	-0.424848
-1.037724	d}d u}u	-0.2329624
-1.966507	d}d i}e	-0.123818
-1.040959	d}d o}o	-0.123818
-1.923148	d}d a}e	-0.123818
-1.939976	d}d e}a	-0.123818
-1.994765	d}d è}e|e	-0.123818
-0.5900265	m}m a}a	-0.2487567
-1.530042	m}m i}i	-0.123818
-0.5132044	m}m e}e	-0.2999092
-1.625479	m}m u}u	-0.123818
-1.105411	m}m o}o	-0.123818
-1.145274	m}m u}o	-0.123818
-1.795512	m}m o}u	-0.123818
-0.7810539	d|u}_ </s>
-0.878722	d|u}_ k}_	-0.123818
-0.639944	h}h a}a	-0.1749705
-1.38603	h}h i}i	-0.123818
-1.392614	h}h e}e	-0.123818
-0.4011919	h}h o}o	-0.2329624
-1.596228	h}h u}o	-0.123818
-1.561382	t|z}z </s>
-1.777937	t|z}z b}b	-0.123818
-0.6294461	t|z}z t}t	-0.424848
-1.679092	t|z}z k}k	-0.123818
-0.4707874	t|z}z u}u	-0.6009392
-0.9228825	t|z}z a}k|i	-0.123818
-1.86434	t|z}z e}t|e	-0.123818
-0.4038694	g}g a}a	-0.4994816
-0.9572317	g}g i}i	-0.1818099
-1.322838	g}g e}e	-0.2999092
-0.634373	g}g u}u	-0.2999092
-2.052626	g}g i}e	-0.123818
-1.122757	g}g o}o	-0.1695755
-2.082842	g}g o}e	-0.123818
-1.048225	i}e a}a	-0.123818
-1.240267	i}e n}n	-0.123818
-1.182606	i}e t}t	-0.123818
-1.407419	i}e l|l}l	-0.123818
-1.266751	i}e r}r	-0.123818
-1.325122	i}e g}g	-0.123818
-1.430684	i}e f}s|b	-0.123818
-0.7211666	p|h}p a}a	-0.123818
-1.247727	p|h}p i}i	-0.123818
-0.5147349	p|h}p e}e	-0.1238179
-1.326307	p|h}p u}u	-0.123818
-1.338214	p|h}p o}o	-0.123818
-1.486749	t|h}t </s>
-0.9928846	t|h}t a}a	-0.123818
-1.019098	t|h}t i}i	-0.123818
-0.657375	t|h}t e}e	-0.4248479
-1.574327	t|h}t u}u	-0.1238179
-0.5594759	t|h}t o}o	-0.3456667
-1.716562	t|h}t a}e	-0.123818
-0.9952679	o}o </s>
-1.103505	o}o a}a	-0.4828399
-1.470965	o}o b}b	-0.2487567
-1.414512	o}o n}n	-0.123818
-1.102294	o}o t}t	-0.2999092
-1.133242	o}o i}i	-0.2329625
-1.322507	o}o k}k	-0.1907648
-0.9161002	o}o r}r	-0.4063645
-1.332131	o}o z}z	-0.2999093
-1.579562	o}o e}e	-0.123818
-1.616137	o}o s}s	-0.123818
-2.301933	o}o d}d	-0.123818
-1.630404	o}o m}m	-0.123818
-2.375985	o}o h}h	-0.123818
-1.630404	o}o t|z}z	-0.220728
-1.798608	o}o g}g	-0.424848
-1.876395	o}o t|h}t	-0.2999092
-2.201123	o}o l}l	-0.123818
-2.301933	o}o k|h}k	-0.123818
-2.499699	o}o r}d	-0.123818
-2.465314	o}o n|h}n	-0.123818
-2.465314	o}o n}n|t	-0.123818
-2.403769	o}o i|t}t	-0.123818
-1.650188	o}o i|n}i	-0.424848
-2.577903	o}o i|ñ}i	-0.123818
-2.349873	o}o a}_	-0.123818
-2.433452	o}o _}z|a	-0.123818
-2.537044	o}o t}e|t	-0.123818
-2.537044	o}o r}t	-0.123818
-2.465314	o}o l|h}l	-0.123818
-2.577903	o}o r|z}s	-0.123818
-2.433452	o}o s}t|s	-0.123818
-2.499699	o}o k}a|k	-0.123818
-1.902734	o}o r}r|e	-0.123818
-2.537044	o}o n|e}_	-0.123818
-2.499699	o}o h|a}a	-0.123818
-2.537044	o}o l}z	-0.123818
-2.577903	o}o f}f|o	-0.123818
-2.577903	o}o i}_|d	-0.123818
-2.577903	o}o h|a}_	-0.123818
-2.577903	o}o b}b|r	-0.123818
-0.5311089	g}-|g i}i	-0.123818
-1.297352	l}l </s>
-0.6328113	l}l a}a	-0.424848
-1.966757	l}l b}b	-0.123818
-1.148727	l}l t}t	-0.123818
-0.9952242	l}l i}i	-0.2029992
-1.780432	l}l k}k	-0.123818
-0.9981569	l}l e}e	-0.1818099
-1.163545	l}l u}u	-0.2999092
-2.009891	l}l d}d	-0.123818
-1.754486	l}l o}o	-0.123818
-2.009891	l}l k|h}k	-0.123818
-2.057786	l}l o}u	-0.123818
-2.173098	l}l e}e|s	-0.123818
-2.025277	l}l e}a	-0.123818
-2.025277	l}l e}i	-0.123818
-2.075002	l}l e|i}e	-0.123818
-2.111626	l}l t}_	-0.123818
-2.057786	l}l e}_	-0.123818
-1.480517	l}l s}t|s	-0.123818
-2.111626	l}l è}e	-0.123818
-0.7774985	a}h|a i}i	-0.123818
-0.8923443	a}h|a t}r	-0.123818
-0.327886	k|h}k a}a	-0.4548112
-1.555341	k|h}k e}e	-0.123818
-0.8280207	k|h}k u}u	-0.1749705
-1.068295	k|h}k o}o	-0.123818
-1.101992	k|h}k a}a|r	-0.123818
-0.592469	m|e}z n|d}i	-0.123818
-0.5855863	n|d}i u}o	-0.123818
-0.7887646	u}o a}a	-0.123818
-0.8530784	u}o n}n	-0.220728
-1.421653	u}o r}r	-0.123818
-1.282629	u}o e}e	-0.123818
-0.8820463	u}o s}s	-0.123818
-1.526118	u}o m}m	-0.123818
-1.554835	u}o t|z}_	-0.123818
-1.019728	ñ}n a}a	-0.123818
-1.086451	ñ}n i}i	-0.123818
-1.093723	ñ}n e}e	-0.1238179
-1.174055	ñ}n u}u	-0.123818
-1.187497	ñ}n o}o	-0.123818
-1.358084	ñ}n -}-	-0.123818
-0.592469	l}h|a b}l|_	-0.123818
-0.592469	b}l|_ a}b|a	-0.123818
-0.5765759	a}b|a l}l	-0.123818
-0.5658874	o}u </s>
-1.238006	o}u a}a	-0.123818
-0.8205847	o}u n}n	-0.424848
-1.418491	o}u r}r	-0.123818
-0.8383206	o}u l}l	-0.123818
-0.2007749	a}e|n k}_	-0.424848
-1.218662	k}_ </s>
-1.144667	k}_ a}a	-0.123818
-1.211389	k}_ i}i	-0.123818
-0.7317922	k}_ e}e	-0.123818
-0.7824418	k}_ g}g	-0.424848
-1.312435	k}_ o}o	-0.123818
-0.3520192	r}d i}i	-0.123818
-1.066135	r}d r}e|z	-0.123818
-0.6276625	n|h}n a}a	-0.123818
-0.6403855	n|h}n i}i	-0.123818
-0.6416785	n|h}n e}e	-0.3456667
-0.08716789	n}n|t z}z	-0.366856
-1.621712	a}e b}b	-0.123818
-0.9863356	a}e n}n	-0.123818
-0.4911589	a}e t}t	-0.220728
-1.360727	a}e i}i	-0.123818
-1.504035	a}e k}k	-0.123818
-1.528993	a}e r}r	-0.123818
-1.528993	a}e z}z	-0.123818
-1.606095	a}e l}l	-0.123818
-1.646245	a}e k|h}k	-0.123818
-0.6584397	p}p a}a	-0.3279379
-1.51592	p}p t}t	-0.123818
-0.6729298	p}p i}i	-0.2487567
-1.613314	p}p r}r	-0.123818
-1.026913	p}p e}e	-0.2999092
-1.553418	p}p u}u	-0.123818
-1.570535	p}p o}o	-0.123818
-1.101158	p}p l}l	-0.123818
-1.756567	p}p o}u	-0.123818
-1.189735	i|t}t i}i	-0.123818
-1.309347	i|t}t z}z	-0.123818
-0.4567429	i|t}t e}e	-0.3870594
-1.268315	i|t}t u}u	-0.123818
-1.427284	i|t}t z|e}e	-0.123818
-0.8599863	z|e}e a}a	-0.123818
-0.9744426	z|e}e n}n	-0.123818
-1.067284	z|e}e s|i}h	-0.123818
-0.589014	e}e|s k}e|k	-0.123818
-0.08446728	k}e|k </s>
-1.129372	i|n}i </s>
-1.174791	i|n}i t}t	-0.123818
-1.129372	i|n}i e}e	-0.123818
-0.6423265	i|n}i o}o	-0.327938
-1.36602	i|n}i o}t|z	-0.123818
-0.7434592	i|ñ}i a}a	-0.123818
-0.7810539	i|ñ}i e}e	-0.123818
-0.8654094	e}a </s>
-1.410942	e}a n}n	-0.123818
-1.340799	e}a t}t	-0.123818
-1.266558	e}a i}i	-0.123818
-1.417332	e}a k}k	-0.123818
-0.9232927	e}a r}r	-0.123818
-1.579298	e}a m}m	-0.123818
-1.570049	e}a k|h}k	-0.123818
-1.661367	e}a n}b|a	-0.123818
-1.63935	e}a _}n|_	-0.123818
-1.044489	k}g a}a	-0.123818
-0.2395974	k}g u}u	-0.2207279
-0.592469	e|i}_ ñ|o}e	-0.123818
-0.5331214	ñ|o}e </s>
-0.2021848	i}r|a ñ}i|n	-0.424848
-0.5569609	ñ}i|n o}o	-0.123818
-0.564484	t}r r}r	-0.123818
-0.7434592	d}t a}a	-0.123818
-0.8183068	d}t u}u	-0.123818
-0.5844498	z|t}_ a}_	-0.123818
-0.4275607	a}_ </s>
-0.9237057	a}_ t}t	-0.123818
-0.9453063	a}_ r}r	-0.123818
-1.52161	a}_ z}z	-0.123818
-1.659114	a}_ d|u}_	-0.123818
-1.632957	a}_ r|a}i	-0.123818
-0.8183068	t}i|t u}u	-0.123818
-0.8900441	t}i|t x}z	-0.123818
-0.7434592	x}z a}a	-0.123818
-0.8049018	x}z t}t	-0.123818
-1.293546	u}_ </s>
-1.195857	u}_ a}a	-0.123818
-1.440238	u}_ n}n	-0.123818
-1.476622	u}_ r}r	-0.123818
-1.039122	u}_ i}u	-0.123818
-1.476622	u}_ z}z	-0.123818
-0.9125818	u}_ e}e	-0.269946
-1.560048	u}_ g}g	-0.123818
-1.712786	u}_ k|a}o	-0.123818
-1.65189	u}_ t|z}t	-0.123818
-1.712786	u}_ i}d|i	-0.123818
-1.712786	u}_ t}d	-0.123818
-0.7774985	t|z}d i}i	-0.123818
-0.8698722	t|z}d a}e	-0.123818
-1.099381	a|i}a n}n	-0.123818
-0.5006334	a|i}a l|l}l	-0.424848
-1.192223	a|i}a d|i}_	-0.123818
-0.9098379	z}t|z </s>
-0.8599863	z}t|z a}a	-0.123818
-0.9098379	z}t|z e}e	-0.123818
-1.293402	e}i </s>
-1.2092	e}i a}a	-0.123818
-0.6569219	e}i n}n	-0.123818
-1.293402	e}i e}e	-0.123818
-1.574514	e}i k}_	-0.123818
-1.625842	e}i r}z	-0.123818
-1.616855	e}i k}t	-0.123818
-0.9390313	e}i r}e|z	-0.424848
-0.5901626	r}z a}k|i	-0.123818
-1.22058	a}k|i z}z	-0.123818
-1.313294	a}k|i t|z}z	-0.123818
-1.272695	a}k|i g}g	-0.123818
-1.325627	a}k|i u}o	-0.123818
-1.364877	a}k|i n}o|n	-0.123818
-1.364877	a}k|i _}o	-0.123818
-0.9827336	t|z}_ a}a	-0.123818
-1.050191	t|z}_ e}e	-0.123818
-1.248536	t|z}_ a}_	-0.123818
-1.281155	t|z}_ a}i|o	-0.1238179
-1.281155	t|z}_ a}o	-0.123818
-0.5464347	i}a|i t}t	-0.123818
-1.196319	k|a}o </s>
-0.7114402	k|a}o n}n	-0.2999093
-1.241737	k|a}o t}t	-0.123818
-1.309347	k|a}o z}z	-0.123818
-0.7291761	k|a}o l}l	-0.424848
-0.8832155	e}i|t _}z|a	-0.123818
-0.8923443	e}i|t s|p}x	-0.123818
-0.5488993	_}z|a i}i	-0.123818
-1.186193	_}z|a z}z	-0.123818
-1.28342	_}z|a s}l|e	-0.123818
-1.287984	_}z|a _}i|o	-0.123818
-1.128862	e|i}e a}a	-0.123818
-0.7114402	e|i}e n}n	-0.424848
-0.6851012	e|i}e e}e	-0.2999092
-1.399933	e|i}e h}h	-0.123818
-1.427284	e|i}e o}e	-0.123818
-0.8877559	r}r|a u|r}u	-0.123818
-0.8923443	r}r|a o|r}u	-0.123818
-0.9422316	u|r}u t}t	-0.123818
-0.9772379	u|r}u k}k	-0.123818
-1.018387	u|r}u g}g	-0.123818
-0.5601691	t|a}_ k}k	-0.123818
-0.5962279	t}_ a}a	-0.123818
-1.2424	t}_ z}z	-0.123818
-1.354727	t}_ a}a|r	-0.123818
-1.343721	t}_ _}e|z	-0.123818
-1.360337	t}_ e}d	-0.123818
-0.1844298	t}e|t a}a	-0.424848
-1.034777	d|u}u </s>
-0.4827569	d|u}u k}k	-0.123818
-1.034777	d|u}u e}e	-0.123818
-0.9849251	z|e}z a}a	-0.123818
-1.030001	z|e}z i}i	-0.123818
-0.4992319	z|e}z r|a}i	-0.2487567
-1.0028	r|a}i t|z}z	-0.424848
-1.011115	r|a}i k}g	-0.424848
-0.4821465	r|a}i u}_	-0.424848
-1.012517	r|a}i u}z|k	-0.424848
-1.700669	r|a}i u}z	-0.123818
-1.700669	r|a}i m|e}n	-0.123818
-0.2012443	u}z|k t|z}_	-0.424848
-0.6297572	a}i|o </s>
-0.6512804	a}i|o n}n	-0.424848
-1.331927	a}i|o t|z}z	-0.123818
-1.307257	a}i|o l}l	-0.123818
-0.7810539	e}e|n </s>
-0.8049018	e}e|n t}t	-0.123818
-0.8281417	o}a n}n	-0.123818
-0.8382045	o}a r}r	-0.123818
-0.7774985	r}t i}i	-0.123818
-0.8923443	r}t a|z}o	-0.123818
-0.452893	l|h}l a}a	-0.123818
-0.7138364	l|h}l u}u	-0.123818
-1.390494	l|h}l a}e	-0.123818
-1.407419	l|h}l u}_	-0.123818
-0.592469	b}a e|n}r	-0.123818
-0.5311089	e|n}r i}i	-0.123818
-0.5331214	a|l}n </s>
-0.5833161	b}i|r e}a	-0.123818
-0.564484	n}b|a z}z	-0.123818
-0.3631106	t|z}t a}a	-0.725878
-0.7546959	t|z}t e}e	-0.1818099
-1.483023	t|z}t è}e|e	-0.123818
-1.492104	t|z}t i}a|s	-0.123818
-0.8049018	i}d|i t}t	-0.123818
-0.8301357	i}d|i k}k	-0.123818
-0.9849251	t|k}k a}a	-0.123818
-0.4642942	t|k}k i}i	-0.123818
-1.093844	t|k}k o}o	-0.123818
-1.048225	e}_ a}a	-0.123818
-1.240267	e}_ n}n	-0.123818
-1.119867	e}_ i}i	-0.123818
-1.245436	e}_ k}k	-0.123818
-1.35086	e}_ s}s	-0.123818
-1.392574	e}_ r|a}i	-0.123818
-1.42279	e}_ o}t|a	-0.123818
-0.7810539	o}t|a </s>
-0.8281417	o}t|a n}n	-0.123818
-0.7434592	z}i|z a}a	-0.123818
-0.8049018	z}i|z t}t	-0.123818
-0.5331214	o|r}u </s>
-0.8281417	o}e n}n	-0.123818
-0.7774985	o}e i}i	-0.123818
-1.089283	a}a|r z}z	-0.123818
-1.181993	a}a|r n}e|n	-0.123818
-1.181993	a}a|r r}r|e	-0.123818
-1.18651	a}a|r t|e}r	-0.123818
-0.3529064	n}e|n </s>
-1.068436	n}e|n t}a|_	-0.123818
-0.8049018	r}s t}t	-0.123818
-0.878722	r}s t|z}t	-0.123818
-0.5331214	z}e e}e	-0.123818
-0.3587173	è}e|e t}t	-0.424848
-1.006227	è}e|e k}k	-0.123818
-0.589014	è}a|i k}e|k	-0.123818
-0.589014	é}a|i k}e|k	-0.123818
-0.9921201	n}i|n </s>
-0.9325537	n}i|n a}a	-0.123818
-1.139235	n}i|n b}b	-0.123818
-1.075002	n}i|n k}k	-0.123818
-0.3775705	i}n|_ n}d|i	-0.424848
-1.068436	i}n|_ n}i|t	-0.123818
-0.1924103	n}d|i t}t	-0.424848
-0.5754626	r|z}s g}g	-0.123818
-0.5913143	o|g}g u|n}u	-0.123818
-0.7810539	u|n}u </s>
-0.8900441	u|n}u t|z}d	-0.123818
-0.5331214	n}o|n </s>
-0.7810539	k}t e}e	-0.123818
-0.8832155	k}t _}z|a	-0.123818
-0.1889721	v}v i}i	-0.123818
-0.7434592	t}d a}a	-0.123818
-0.7810539	t}d e}e	-0.123818
-0.8382045	_}d|a z}z	-0.123818
-0.8900441	_}d|a d}r	-0.123818
-0.9098379	d}r e}e	-0.123818
-0.9607299	d}r u}u	-0.123818
-1.040523	d}r e}a	-0.123818
-0.5569609	i}k|i o}o	-0.123818
-0.5867259	d|e}d r|a}i	-0.123818
-0.5601691	u}z k}k	-0.123818
-0.5331214	t}k|i e}e	-0.123818
-0.5833161	d}e|s e}a	-0.123818
-1.181993	_}n|_ r}d	-0.123818
-1.173098	_}n|_ i|n}i	-0.123818
-1.18651	_}n|_ n}d|i	-0.123818
-1.191074	_}n|_ o}i|e	-0.123818
-0.1844298	r}e|z a}a	-0.123818
-0.5913143	d}g e|s}o	-0.123818
-1.191074	e|s}o i|r}g	-0.123818
-1.18651	e|s}o a}r	-0.123818
-1.191074	e|s}o a}r|t	-0.123818
-1.191074	e|s}o a|t}r	-0.123818
-0.5569609	i|r}g o}o	-0.123818
-1.14616	s}t|s a}a	-0.123818
-1.22877	s}t|s i}i	-0.123818
-0.8276209	s}t|s e}e	-0.123818
-1.342539	s}t|s u}u	-0.123818
-1.360647	s}t|s o}o	-0.123818
-1.560619	s}t|s u}o	-0.123818
-1.560619	s}t|s o}u	-0.123818
-1.570498	s}t|s e|i}e	-0.123818
-1.580608	s}t|s _}u	-0.123818
-1.623578	s}t|s e}u|k	-0.123818
-0.550576	_}u </s>
-1.240236	_}u s}s	-0.123818
-1.261291	_}u u}_	-0.123818
-1.28342	_}u e}n|e	-0.123818
-0.592469	d|e}n s}a|h	-0.123818
-0.592469	s}a|h k|o}i	-0.123818
-0.592469	k|o}i n|s}g	-0.123818
-0.592469	n|s}g o|l}a	-0.123818
-0.592469	o|l}a a}b|e	-0.123818
-0.5464347	a}b|e t}t	-0.123818
-0.06469659	_}e|z a}a	-0.220728
-0.592469	a}e|z z}a|i	-0.123818
-0.5569609	z}a|i o}o	-0.123818
-0.5331214	f}s|b e}e	-0.123818
-0.5590971	e}d|i n}n	-0.123818
-0.8832155	i}a|s _}u	-0.123818
-0.8923443	i}a|s a}u|n	-0.123818
-0.5901626	a}u|n k}a|k	-0.123818
-0.3529064	k}a|k </s>
-1.057054	k}a|k e|i}e	-0.123818
-0.8281417	e}n|e n}n	-0.123818
-0.8900441	e}n|e i}r|a	-0.123818
-0.592469	n}n|_ o}h|o	-0.123818
-0.564484	o}h|o r}r	-0.123818
-0.9921201	r}r|e </s>
-0.9325537	r}r|e a}a	-0.123818
-1.18651	r}r|e e}n|e	-0.123818
-1.191074	r}r|e g}n|g	-0.123818
-0.9098379	n|e}_ </s>
-0.8599863	n|e}_ a}a	-0.123818
-0.9607299	n|e}_ u}u	-0.123818
-0.5311089	d}d|a i}i	-0.123818
-0.9744426	h|a}a n}n	-0.123818
-0.9886023	h|a}a z}z	-0.123818
-0.9607299	h|a}a u}u	-0.123818
-0.564484	t}_|e z}z	-0.123818
-0.8281417	z}z|_ n}n	-0.123818
-0.8832155	z}z|_ _}e|z	-0.123818
-0.5311089	j}g i}i	-0.123818
-0.9571452	f}f </s>
-0.3432463	f}f a}a	-0.123818
-0.7810539	t}t|e </s>
-0.7434592	t}t|e a}a	-0.123818
-0.5114812	g}n|g a}a	-0.123818
-0.5901626	m}m|a _}n|_	-0.123818
-0.5878685	o}i|e _}z|a	-0.123818
-0.564484	_}i|o z}z	-0.123818
-0.592469	e|n}a s}h|a	-0.123818
-0.5913143	s}h|a e}l|e	-0.123818
-0.8301357	e}l|e k}k	-0.123818
-0.8923443	e}l|e i}g|i	-0.123818
-0.5913143	i}g|i u}n	-0.123818
-0.7810539	u}n </s>
-0.7810539	u}n e}e	-0.123818
-0.8599863	h|i}i a}a	-0.123818
-1.03729	h|i}i d}d	-0.123818
-1.021481	h|i}i l}l	-0.123818
-0.9325537	h|o}o a}a	-0.123818
-1.031587	h|o}o t}t	-0.123818
-0.9863545	h|o}o i}i	-0.123818
-1.075002	h|o}o k}k	-0.123818
-0.5114812	r|r}r a}a	-0.123818
-0.3529064	-}- e}e	-0.123818
-1.050366	-}- m}m	-0.123818
-0.5901626	e|r}z r|e}_	-0.123818
-0.9744426	r|e}_ n}n	-0.123818
-0.9886023	r|e}_ r}r	-0.123818
-1.04706	r|e}_ k}_	-0.123818
-0.5464347	t|a}n t}t	-0.123818
-0.592469	e|r}l r|e}i	-0.123818
-0.5833161	r|e}i m}m	-0.123818
-0.5114812	i|n}n a}a	-0.123818
-0.592469	e|r}b r|e}a	-0.123818
-0.592469	r|e}a p|a}n	-0.123818
-0.592469	p|a}n r|t}a	-0.123818
-0.5867259	r|t}a i|t}t	-0.123818
-0.5311089	k}r i}i	-0.123818
-0.592469	e|s}i k}z|k	-0.123818
-0.7774985	k}z|k i}i	-0.123818
-0.8900441	k}z|k i}_	-0.123818
-0.5114812	i|b}i a}a	-0.123818
-0.8382045	i}_ r}r	-0.123818
-0.8832155	i}_ t|z}_	-0.123818
-0.5913143	e}t|e i}n|_	-0.123818
-0.5833161	s|p}x e}a	-0.123818
-0.5901626	a}o|p n}e|n	-0.123818
-0.5913143	t}a|_ z}i|z	-0.123818
-0.7810539	t|u}n </s>
-0.8923443	t|u}n r|i}i	-0.123818
-0.5601691	r|i}i k}k	-0.123818
-0.592469	p|o}a r}i	-0.123818
-0.5878685	r}i t|z}_	-0.123818
-0.9325537	x}x a}a	-0.123818
-1.031587	x}x t}t	-0.123818
-1.164381	x}x o}u	-0.123818
-1.147456	x}x a}e	-0.123818
-0.8382045	t}z|_ z}z	-0.123818
-0.8854798	t}z|_ z|e}z	-0.123818
-0.8183068	e}d u}u	-0.123818
-0.880963	e}d r|a}i	-0.123818
-0.5331214	x}t|s e}e	-0.123818
-0.7434592	k}_|g a}a	-0.123818
-0.7810539	k}_|g e}e	-0.123818
-0.7434592	p}_|b a}a	-0.123818
-0.8854798	p}_|b a|i}a	-0.123818
-1.019728	t}_|d a}a	-0.123818
-1.086451	t}_|d i}i	-0.123818
-1.093723	t}_|d e}e	-0.123818
-1.174055	t}_|d u}u	-0.123818
-1.344809	t}_|d a|i}a	-0.123818
-1.313294	t}_|d e}i	-0.123818
-0.5601691	d|i}_ k}k	-0.123818
-0.592469	e}u|k r}e|r	-0.123818
-0.5311089	r}e|r i}i	-0.123818
-0.7810539	a}o </s>
-0.8049018	a}o t}t	-0.123818
-0.5114812	t}t|i a}a	-0.123818
-0.5114812	g}k a}a	-0.123818
-0.240882	è}e n}n	-0.6009392
-1.105932	è}e t}t	-0.123818
-0.592469	l}l|e a}r|a	-0.123818
-0.5464347	a}r|a t}t	-0.123818
-0.5311089	s}s|t i}i	-0.123818
-0.5913143	g|o}s l|a}a	-0.123818
-0.7810539	l|a}a </s>
-0.8382045	l|a}a r}r	-0.123818
-0.5844498	d|o}i a}_	-0.123818
-0.7774985	l}z i}i	-0.123818
-0.824181	l}z o}o	-0.123818
-0.5311089	t}t|x i}i	-0.123818
-0.592469	b|e}p h|e}e	-0.123818
-0.564484	h|e}e r}r	-0.123818
-0.5855863	a|p}e e}_	-0.123818
-0.5464347	e}o t}t	-0.123818
-0.5114812	z|-}z a}a	-0.123818
-0.8742746	h}h|a e}i	-0.123818
-0.8923443	h}h|a e}i|e	-0.123818
-0.9422316	e}i|e t}t	-0.123818
-0.9772379	e}i|e k}k	-0.123818
-1.04706	e}i|e t|z}t	-0.123818
-0.592469	h|e}i r|s}x	-0.123818
-0.5464347	r|s}x t}t	-0.123818
-0.5754626	-}i g}g	-0.123818
-0.9325537	i}j a}a	-0.123818
-0.9921201	i}j e}e	-0.123818
-1.054424	i}j u}u	-0.123818
-1.064591	i}j o}o	-0.123818
-0.5331214	t}t|z e}e	-0.123818
-0.5311089	k}i|k i}i	-0.123818
-0.7810539	b}p e}e	-0.123818
-0.8742746	b}p e}i	-0.123818
-0.5331214	f}n|f e}e	-0.123818
-0.5878685	s}s|_ _}e|z	-0.123818
-0.592469	i|l}i t}r|i	-0.123818
-0.592469	t}r|i k}t|s	-0.123818
-0.5311089	k}t|s i}i	-0.123818
-0.5311089	_}e|g i}i	-0.123818
-0.5878685	d}_|i _}e|z	-0.123818
-0.592469	a}a|l r}a|r	-0.123818
-0.5311089	r}a|r i}i	-0.123818
-0.5331214	p|h}f e}e	-0.123818
-0.5799329	t}n s}s	-0.123818
-0.578811	s|-}s b}b	-0.123818
-0.5867259	i|u}z r|a}i	-0.123818
-0.592469	m|e}n n|t}_	-0.123818
-0.878722	n|t}_ u}_	-0.123818
-0.8923443	n|t}_ u|r}_	-0.123818
-0.5311089	u|r}_ i}i	-0.123818
-0.7774985	x}s i}i	-0.123818
-0.824181	x}s o}o	-0.123818
-0.564484	n}i|t z}z	-0.123818
-0.5901626	f}f|o a}i	-0.123818
-0.592469	k}a|i o|f}t	-0.123818
-0.8900441	o|f}t e|s}o	-0.123818
-0.8923443	o|f}t e|s}_	-0.123818
-0.9571452	a}r </s>
-0.3587173	a}r t}t	-0.2999092
-0.5878685	a}r|t _}u	-0.123818
-0.5913143	a|t}r s}t|z	-0.123818
-0.7810539	s}t|z e}e	-0.123818
-0.8183068	s}t|z u}u	-0.123818
-0.5569609	e|s}_ o}o	-0.123818
-0.5311089	z|k}k i}i	-0.123818
-0.592469	z}k|e i|n}_	-0.123818
-0.5913143	i|n}_ o}t|a	-0.123818
-0.5114812	z}z|i a}a	-0.123818
-0.5601691	d|i}o k}k	-0.123818
-0.5913143	i}_|d t}i|t	-0.123818
-0.8301357	h|a}_ k}k	-0.123818
-0.8877559	h|a}_ t|k}k	-0.123818
-0.7810539	r}r|i </s>
-0.7434592	r}r|i a}a	-0.123818
-0.5537762	b}g u}u	-0.123818
-0.5464347	k|a}_ t}t	-0.123818
-0.5913143	n|e}b z|e}e	-0.123818
-0.589014	s|i}h t}_	-0.123818
-0.7810539	t|e}r </s>
-0.7434592	t|e}r a}a	-0.123818
-0.592469	o|b}b l}e|h	-0.123818
-0.592469	l}e|h i|g}a	-0.123818
-0.5913143	i|g}a a}r	-0.123818
-0.5114812	ñ|h}n a}a	-0.123818
-0.5590971	é}e n}n	-0.123818
-0.5331214	i}i|n </s>
-0.5114812	d}n|d a}a	-0.123818
-0.5569609	k}n|g o}o	-0.123818
-0.5878685	a|z}o i|n}i	-0.123818
-0.7810539	o}t|z </s>
-0.7434592	o}t|z a}a	-0.123818
-0.5331214	a|k}n </s>
-0.824181	p|r}p o}o	-0.123818
-0.8923443	p|r}p e}e|r	-0.123818
-0.5878685	e}e|r s}t|s	-0.123818
-0.5331214	b}b|r e}e	-0.123818
-0.564484	p}a|p r}r	-0.123818
-0.5331214	i}i|o e}e	-0.123818
-0.592469	p|u}m r}a|l	-0.123818
-0.592469	r}a|l p|u}k	-0.123818
-0.592469	p|u}k i|l}o	-0.123818
-0.5913143	i|l}o l|a}a	-0.123818
-0.5867259	s}e|s p}p	-0.123818
-0.5114812	e|n}e a}a	-0.123818
-0.5114812	x}t|x a}a	-0.123818
-0.5331214	z|i}z </s>
-0.5331214	_}o </s>
-0.592469	z|k}e o|n}n	-0.123818
-0.5331214	o|n}n e}e	-0.123818
-0.5901626	u}e|z k}a|k	-0.123818

\3-grams:
-1.321634	<s> a}a b}b	-0.3854923
-1.694769	<s> a}a n}n	-0.08446222
-1.477957	<s> a}a t}t	-0.3854922
-0.8863199	<s> a}a i}i	-0.4824023
-0.6905047	<s> a}a r}r	-0.5615834
-1.684855	<s> a}a u}u	-0.08446222
-2.218741	<s> a}a d}d	-0.08446222
-0.7962384	<s> a}a m}m	-0.5963455
-2.45749	<s> a}a h}h	-0.0844622
-1.091676	<s> a}a p|h}p	-0.3275002
-1.256715	<s> a}a t|h}t	-0.4824022
-2.095929	<s> a}a l}l	-0.08446222
-1.021529	<s> a}a k|h}k	-0.5104309
-2.473624	<s> a}a l}h|a	-0.08446221
-1.772952	<s> a}a n|h}n	-0.3854922
-2.392879	<s> a}a n}n|t	-0.08446221
-1.756149	<s> a}a p}p	-0.3854922
-2.470893	<s> a}a t}i|t	-0.08446221
-2.27112	<s> a}a u}_	-0.08446221
-0.6009559	<s> b}b a}a	-0.5615835
-1.005254	<s> b}b i}i	-0.3477037
-0.2248558	<s> b}b e}e	-0.9942854
-2.213687	<s> b}b u}u	-0.08446223
-1.476839	<s> b}b o}o	-0.2094009
-2.558446	<s> b}b a}e	-0.08446221
-2.570154	<s> b}b a|i}a	-0.08446221
-0.6602514	<s> n}n a}a	-0.08446221
-1.098702	<s> n}n i}i	-0.08446221
-1.100237	<s> n}n e}e	-0.08446221
-1.312834	<s> n}n u}u	-0.08446222
-1.477888	<s> n}n i}e	-0.08446221
-0.7994333	<s> n}n e}i	-0.3854922
-0.09411981	<s> t}t r}r	-0.8626136
-0.9652616	<s> t}t e}e	-0.3854922
-1.477395	<s> i}i n}n	-0.08446221
-1.363936	<s> i}i t}t	-0.08446222
-1.9135	<s> i}i l|l}l	-0.08446221
-0.9679014	<s> i}i r}r	-0.3854923
-0.6743411	<s> i}i z}z	-0.8626135
-2.221738	<s> i}i t|h}t	-0.08446221
-0.7803134	<s> i}i k|h}k	-0.7834322
-2.138856	<s> i}i a}e	-0.08446221
-1.380591	<s> i}i l|h}l	-0.5615835
-1.233931	<s> i}i d}r	-0.3854922
-2.224845	<s> i}i _}e|z	-0.0844622
-2.165224	<s> i}i a}e|z	-0.08446221
-2.316487	<s> i}i x}x	-0.08446221
-1.117983	<s> i}i b}p	-0.7834322
-1.118226	<s> i}i f}n|f	-0.7834322
-2.320355	<s> i}i x}s	-0.08446221
-1.243362	<s> k}k a}a	-0.3854922
-1.91994	<s> k}k r}r	-0.08446222
-1.640114	<s> k}k e}e	-0.08446221
-0.08711507	<s> k}k o}o	-0.84413
-2.011844	<s> k}k l}l	-0.08446221
-0.3552981	<s> a|b}d a}i	-0.08446221
-0.285123	<s> z}z a}a	-0.6642458
-1.093863	<s> z}z i}i	-0.08446222
-0.7299341	<s> z}z e}e	-0.2305902
-1.404054	<s> z}z u}u	-0.08446221
-1.91125	<s> z}z i}e	-0.08446221
-1.996573	<s> z}z e}a	-0.08446221
-2.113847	<s> z}z a}_	-0.08446221
-2.111075	<s> z}z e}i	-0.08446221
-1.434609	<s> z}z e}i|t	-0.3854922
-2.133766	<s> z}z u}e|z	-0.0844622
-2.542534	<s> e}e b}b	-0.08446222
-1.551087	<s> e}e n}n	-0.2605535
-2.029114	<s> e}e t}t	-0.08446221
-0.9128832	<s> e}e r}r	-0.4946367
-0.4297127	<s> e}e z}z	-1.141367
-2.423662	<s> e}e s}s	-0.08446221
-2.55028	<s> e}e d}d	-0.08446222
-1.216229	<s> e}e m}m	-1.084462
-0.965799	<s> e}e g}g	-0.83779
-1.830249	<s> e}e p|h}p	-0.5615835
-1.662148	<s> e}e t|h}t	-0.6865222
-1.328642	<s> e}e l}l	-0.6285303
-2.031047	<s> e}e k|h}k	-0.3854922
-2.035802	<s> e}e n}n|t	-0.3854922
-2.646779	<s> e}e l|h}l	-0.08446221
-2.083267	<s> e}e z}z|_	-0.3854922
-2.084157	<s> e}e j}g	-0.3854922
-2.758231	<s> e}e m}m|a	-0.0844622
-2.758231	<s> e}e r|r}r	-0.08446222
-0.9258128	<s> e}e t}z|_	-1.062186
-2.758231	<s> e}e x}t|s	-0.08446223
-0.720064	<s> s}s a}a	-0.452439
-0.9728089	<s> s}s i}i	-0.6865222
-1.192236	<s> s}s z}z	-0.5615835
-1.086536	<s> s}s e}e	-0.5615835
-1.108533	<s> s}s u}u	-0.5615835
-0.6299003	<s> s}s o}o	-0.5615835
-0.7580826	<s> s}s a|i}a	-0.9295603
-1.166006	<s> u}u t}t	-0.3854922
-0.2601327	<s> u}u r}r	-0.5316203
-1.976407	<s> u}u h}h	-0.0844622
-1.027173	<s> u}u t|z}z	-0.5615835
-1.281436	<s> u}u k|h}k	-0.08446222
-1.296993	<s> u}u n|h}n	-0.08446222
-1.981448	<s> u}u t|k}k	-0.08446222
-0.4362415	<s> d}d a}a	-0.4824022
-0.4857186	<s> d}d i}i	-0.3854922
-0.8934815	<s> d}d e}e	-0.1813722
-1.730614	<s> d}d u}u	-0.08446221
-1.269285	<s> d}d i}e	-0.5615835
-1.187013	<s> d}d o}o	-0.2605535
-2.128506	<s> d}d a}e	-0.08446221
-2.132227	<s> d}d e}a	-0.08446221
-0.292129	<s> m}m a}a	-0.3275002
-0.3902874	<s> m}m i}i	-0.3854922
-0.4839578	<s> h}h a}a	-0.3854922
-0.9897561	<s> h}h i}i	-0.1813722
-0.9010502	<s> h}h e}e	-0.5615835
-0.8745021	<s> h}h o}o	-0.1813722
-0.5420363	<s> h}h u}o	-1.198406
-0.3083786	<s> g}g a}a	-0.7834322
-1.284273	<s> g}g i}i	-0.08446221
-0.6343459	<s> g}g e}e	-0.6865222
-0.8901907	<s> g}g u}u	-0.6865222
-1.101779	<s> g}g o}o	-0.08446221
-0.3206508	<s> p|h}p e}e	-0.08446221
-0.7077663	<s> t|h}t i}i	-0.08446222
-0.4796711	<s> t|h}t o}o	-0.08446221
-1.855351	<s> o}o b}b	-0.08446222
-1.825862	<s> o}o n}n	-0.08446222
-0.8749404	<s> o}o i}i	-0.4824023
-0.4713602	<s> o}o r}r	-0.6865222
-1.449195	<s> o}o h}h	-0.3854922
-1.031515	<s> o}o t|h}t	-0.3854923
-0.9242928	<s> o}o k|h}k	-0.7834322
-1.199547	<s> o}o n|h}n	-0.5615835
-1.452534	<s> o}o r}t	-0.3854922
-2.02211	<s> o}o r}r|e	-0.0844622
-1.110256	<s> l}l a}a	-0.08446222
-0.7012344	<s> l}l i}i	-0.2094009
-0.3879606	<s> l}l e}e	-0.510431
-1.493957	<s> l}l u}u	-0.08446222
-0.9094076	<s> l}l o}o	-0.5615835
-1.804943	<s> l}l e}i	-0.08446222
-1.812852	<s> l}l e|i}e	-0.08446221
-0.6028555	<s> a}h|a i}i	-0.08446222
-0.656832	<s> a}h|a t}r	-0.0844622
-0.08764568	<s> k|h}k e}e	-0.2094009
-1.036244	<s> p}p a}a	-0.08446222
-1.04111	<s> p}p i}i	-0.5615835
-0.9270961	<s> p}p r}r	-0.306311
-0.3443739	<s> p}p e}e	-1.013881
-1.971333	<s> p}p u}u	-0.08446222
-1.346775	<s> p}p l}l	-0.0844622
-0.8406395	<s> p}p o}u	-0.5615835
-0.4629256	<s> e}i|t s|p}x	-0.0844622
-0.04708493	<s> z|e}z r|a}i	-0.3063109
-0.3563064	<s> b}a e|n}r	-0.08446223
-0.3522871	<s> b}i|r e}a	-0.08446221
-0.5503929	<s> e}_ s}s	-0.08446221
-0.1338874	<s> v}v i}i	-0.08446222
-0.4622809	<s> _}d|a d}r	-0.08446223
-0.01167886	<s> d|e}d r|a}i	-0.7077113
-0.1413613	<s> d}e|s e}a	-0.3854922
-0.355802	<s> d}g e|s}o	-0.08446221
-0.3563064	<s> d|e}n s}a|h	-0.08446221
-0.04871993	<s> d}d|a i}i	-0.7834322
-0.4809969	<s> h|a}a u}u	-0.08446222
-0.09985022	<s> f}f a}a	-0.3854922
-0.3563064	<s> e|n}a s}h|a	-0.0844622
-0.3353344	<s> h|i}i d}d	-0.3854922
-0.8847311	<s> h|i}i l}l	-0.08446221
-0.3552981	<s> e|r}z r|e}_	-0.08446221
-0.1425939	<s> e|r}l r|e}i	-0.3854922
-0.3563064	<s> e|r}b r|e}a	-0.08446221
-0.1425939	<s> e|s}i k}z|k	-0.0844622
-0.4409113	<s> e}d u}u	-0.08446222
-0.1308734	<s> g}k a}a	-0.3854922
-0.355802	<s> g|o}s l|a}a	-0.08446221
-0.4276239	<s> l}z i}i	-0.08446221
-0.7420389	<s> h}h|a e}i	-0.3854922
-0.1674308	<s> h}h|a e}i|e	-0.3854922
-0.3563064	<s> h|e}i r|s}x	-0.08446222
-0.1949428	<s> i}j a}a	-0.6773787
-1.11869	<s> i}j e}e	-0.5615835
-0.8849865	<s> i}j u}u	-0.7834323
-0.8852669	<s> i}j o}o	-0.607341
-0.1425939	<s> i|l}i t}r|i	-0.3854922
-0.3284488	<s> _}e|g i}i	-0.08446221
-0.0313535	<s> i|u}z r|a}i	-0.9875522
-0.4427551	<s> x}s o}o	-0.08446222
-0.0278875	<s> k}a|i o|f}t	-0.7376747
-0.1424396	<s> n|e}b z|e}e	-0.3854922
-0.3563064	<s> o|b}b l}e|h	-0.08446221
-0.1068328	<s> p|r}p o}o	-0.8626134
-1.2009	<s> p|r}p e}e|r	-0.0844622
-0.1387537	<s> p}a|p r}r	-0.3854922
-0.3563064	<s> p|u}m r}a|l	-0.08446221
-0.35379	<s> s}e|s p}p	-0.08446223
-0.3190829	<s> x}t|x a}a	-0.08446221
-0.5236747	a}a b}b a}a	-0.2094009
-0.7162656	a}a b}b i}i	-0.3854922
-1.66838	a}a b}b r}r	-0.08446221
-0.4322887	a}a b}b e}e	-0.3275003
-1.404782	a}a b}b u}u	-0.08446223
-0.3106615	a}a n}n </s>
-0.848015	a}a n}n a}a	-0.1813722
-1.288629	a}a n}n t}t	-0.08446221
-1.556772	a}a n}n i}i	-0.08446221
-1.087883	a}a n}n e}e	-0.209401
-1.698956	a}a n}n d}d	-0.08446221
-2.104192	a}a n}n t|z}z	-0.08446223
-2.097531	a}a n}n a}e	-0.08446222
-1.462578	a}a n}n i}d|i	-0.3854922
-1.908988	a}a n}n t|k}k	-0.08446222
-2.131905	a}a n}n t}t|e	-0.08446223
-1.462578	a}a n}n -}-	-0.08446221
-1.277068	a}a t}t </s>
-1.436021	a}a t}t i}i	-0.3854922
-2.146754	a}a t}t r}r	-0.08446222
-0.3556421	a}a t}t z}z	-0.8973755
-1.049985	a}a t}t e}e	-0.2305902
-1.497257	a}a t}t s}s	-0.08446221
-0.5472099	a}a t}t u}u	-0.5793123
-1.956503	a}a t}t o}o	-0.08446222
-2.273539	a}a t}t o}a	-0.08446221
-0.9521653	a}a i}i n}n	-0.08446222
-0.8216349	a}a i}i t}t	-0.3854923
-2.226578	a}a i}i l}l|a	-0.08446223
-1.074611	a}a i}i l|l}l	-0.306311
-1.133166	a}a i}i k}k	-0.5615835
-1.525567	a}a i}i r}r	-0.08446221
-1.336751	a}a i}i z}z	-0.08446222
-1.316068	a}a i}i e}e	-0.08446225
-1.857923	a}a i}i t|z}z	-0.08446217
-2.097255	a}a i}i p|h}p	-0.08446221
-1.524583	a}a i}i t|h}t	-0.2605535
-1.674299	a}a i}i o}o	-0.08446221
-0.9203389	a}a i}i ñ}n	-0.3854922
-2.010872	a}a i}i k}g	-0.08446223
-2.221133	a}a i}i x}z	-0.08446221
-2.205196	a}a i}i t|z}_	-0.08446222
-1.528958	a}a i}i k|a}o	-0.209401
-2.194888	a}a i}i e}_	-0.08446221
-2.226578	a}a i}i t|a}n	-0.08446222
-2.226578	a}a i}i t}t|i	-0.08446222
-2.226578	a}a i}i d}n|d	-0.08446222
-2.226578	a}a i}i k}n|g	-0.0844622
-2.226578	a}a i}i z|k}e	-0.08446221
-0.2905607	a}a k}k </s>
-1.532934	a}a k}k a}a	-0.08446222
-0.963128	a}a k}k i}i	-0.1636435
-1.866914	a}a k}k r}r	-0.08446221
-1.00644	a}a k}k e}e	-0.08446221
-1.759473	a}a k}k u}u	-0.08446221
-0.9404052	a}a k}k o}o	-0.306311
-2.0261	a}a k}k u}_	-0.08446221
-1.276017	a}a k}k e|i}e	-0.3854922
-1.33297	a}a r}r </s>
-0.8125499	a}a r}r a}a	-0.3854923
-2.291646	a}a r}r b}b	-0.08446222
-0.9659288	a}a r}r t}t	-0.2605536
-0.588648	a}a r}r i}i	-0.6584934
-0.8963056	a}a r}r r}r	-0.5316202
-0.7388363	a}a r}r e}e	-0.6865222
-1.584702	a}a r}r t|h}t	-0.08446219
-2.181609	a}a r}r k|h}k	-0.08446222
-2.339503	a}a r}r t|z}d	-0.08446221
-2.339503	a}a r}r z}t|z	-0.08446221
-2.339503	a}a r}r k}t	-0.08446222
-2.334927	a}a r}r r|e}_	-0.08446221
-0.466034	a}a z}z </s>
-1.339366	a}a z}z a}a	-0.08446221
-1.208747	a}a z}z t}t	-0.08446221
-1.535914	a}a z}z k}k	-0.08446221
-0.824938	a}a z}z e}e	-0.1813722
-0.7657055	a}a z}z u}u	-0.2094009
-1.758022	a}a z}z i}e	-0.08446221
-1.896121	a}a z}z o}o	-0.08446221
-1.966218	a}a z}z i|t}t	-0.08446221
-1.279638	a}a z}z i|n}i	-0.3854922
-0.1821069	a}a t|s}s t}t	-0.08446222
-0.9950917	a}a t|s}s b|e}p	-0.08446221
-1.035167	a}a s}s </s>
-1.020427	a}a s}s a}a	-0.08446222
-0.9845047	a}a s}s t}t	-0.08446221
-0.6911747	a}a s}s i}i	-0.08446223
-0.9766916	a}a s}s e}e	-0.08446222
-0.6980186	a}a s}s u}u	-0.3854922
-1.499295	a}a s}s i|n}i	-0.08446222
-0.7841605	a}a u}u n}n	-0.1813722
-1.154216	a}a u}u t}t	-0.08446221
-1.13625	a}a u}u r}r	-0.08446221
-0.7852068	a}a u}u z}z	-0.08446221
-0.9397773	a}a u}u t|s}s	-0.08446224
-1.261694	a}a u}u s}s	-0.08446221
-1.541425	a}a u}u d}d	-0.08446222
-1.62042	a}a u}u k}e|k	-0.08446221
-0.869366	a}a d}d a}a	-0.08446221
-0.2279619	a}a d}d i}i	-0.08446221
-1.120258	a}a d}d u}u	-0.08446223
-0.4471437	a}a m}m a}a	-0.08446221
-0.4225878	a}a m}m e}e	-0.5615835
-1.219437	a}a m}m o}o	-0.08446221
-1.240635	a}a m}m u}o	-0.08446221
-1.465314	a}a m}m o}u	-0.08446221
-0.3763959	a}a h}h a}a	-0.08446222
-0.7193999	a}a t|z}z t}t	-0.08446221
-0.3438299	a}a t|z}z u}u	-0.08446216
-0.9155802	a}a t|z}z a}k|i	-0.08446222
-1.23782	a}a t|z}z e}t|e	-0.0844622
-0.3180133	a}a g}g a}a	-0.5615835
-0.9252515	a}a g}g i}i	-0.08446221
-1.515863	a}a g}g e}e	-0.08446219
-1.096682	a}a g}g u}u	-0.08446221
-0.5981739	a}a g}g o}o	-0.1813722
-0.7853469	a}a p|h}p a}a	-0.08446222
-0.6317252	a}a p|h}p e}e	-0.08446221
-1.107965	a}a p|h}p u}u	-0.08446222
-0.5571726	a}a p|h}p o}o	-0.08446221
-0.9697954	a}a t|h}t </s>
-0.6052144	a}a t|h}t e}e	-0.08446223
-0.5375446	a}a t|h}t o}o	-0.0844622
-0.4465712	a}a l}l a}a	-0.3854922
-1.618396	a}a l}l b}b	-0.08446224
-1.284526	a}a l}l t}t	-0.08446223
-1.181336	a}a l}l i}i	-0.08446222
-1.57262	a}a l}l k}k	-0.0844622
-0.6587678	a}a l}l e}e	-0.0844622
-1.29384	a}a l}l u}u	-0.08446223
-1.463619	a}a l}l s}t|s	-0.08446221
-0.3254887	a}a k|h}k a}a	-0.2605535
-0.6455498	a}a k|h}k u}u	-0.08446222
-0.6864889	a}a k|h}k o}o	-0.0844622
-0.1425939	a}a m|e}z n|d}i	-0.3854922
-0.3563064	a}a l}h|a b}l|_	-0.08446221
-0.946974	a}a k}_ </s>
-0.3021188	a}a k}_ g}g	-0.3854922
-0.5210675	a}a n|h}n a}a	-0.08446222
-0.528507	a}a n|h}n i}i	-0.0844622
-0.03075679	a}a n}n|t z}z	-0.08446221
-0.2789431	a}a p}p a}a	-0.08446221
-0.8867106	a}a p}p e}e	-0.08446219
-0.04472131	a}a i|t}t e}e	-0.5615835
-0.4622809	a}a t}i|t x}z	-0.08446223
-0.4782342	a}a u}_ n}n	-0.3854922
-1.092397	a}a u}_ r}r	-0.08446221
-1.110439	a}a u}_ g}g	-0.08446222
-0.4616372	a}a r}r|a u|r}u	-0.08446221
-0.304977	a}a d|u}u k}k	-0.08446221
-0.3131256	a}a z|e}z r|a}i	-0.08446222
-0.1419772	a}a u}z|k t|z}_	-0.08446222
-0.4276239	a}a r}t i}i	-0.08446221
-0.5696705	a}a l|h}l u}u	-0.08446222
-0.8140072	a}a l|h}l u}_	-0.08446221
-0.9551904	a}a n}i|n </s>
-0.9212749	a}a n}i|n a}a	-0.08446221
-0.5327357	a}a n}i|n b}b	-0.3854922
-0.9990181	a}a n}i|n k}k	-0.08446221
-0.4622809	a}a u|n}u t|z}d	-0.08446221
-0.1338874	a}a v}v i}i	-0.08446221
-0.4470881	a}a _}d|a z}z	-0.08446221
-0.3404477	a}a i}k|i o}o	-0.08446221
-0.5356475	a}a _}u s}s	-0.08446221
-0.3284488	a}a k}r i}i	-0.08446221
-0.6046401	a}a t|u}n </s>
-0.656832	a}a t|u}n r|i}i	-0.08446221
-0.3190829	a}a z|-}z a}a	-0.08446221
-0.3284488	a}a k}i|k i}i	-0.08446222
-0.3502913	a}a s|-}s b}b	-0.08446221
-0.3563064	a}a z}k|e i|n}_	-0.0844622
-0.3389902	a}a b}g u}u	-0.08446221
-0.4288152	a}a t|e}r </s>
-0.3293966	a}a i}i|n </s>
-0.9506995	b}b a}a n}n	-0.08446223
-0.6501971	b}b a}a t}t	-0.3854922
-0.8142234	b}b a}a i}i	-0.1636434
-1.173014	b}b a}a r}r	-0.08446221
-1.003263	b}b a}a z}z	-0.08446221
-1.756508	b}b a}a t|s}s	-0.08446219
-1.678539	b}b a}a d}d	-0.08446222
-1.794209	b}b a}a t|h}t	-0.08446221
-1.71219	b}b a}a k|h}k	-0.08446223
-1.84509	b}b a}a r}r|a	-0.08446221
-1.841869	b}b a}a z|e}z	-0.08446221
-1.139821	b}b i}i a}a	-0.08446221
-1.041605	b}b i}i t}t	-0.08446221
-0.8259544	b}b i}i l|l}l	-0.08446224
-1.23016	b}b i}i z}z	-0.0844622
-1.52444	b}b i}i h}h	-0.08446221
-1.530355	b}b i}i p|h}p	-0.08446221
-1.35482	b}b i}i l}l	-0.08446221
-1.522487	b}b i}i a}_	-0.08446225
-1.530355	b}b i}i l|h}l	-0.08446222
-0.5397549	b}b r}r u}u	-0.08446222
-1.240067	b}b e}e a}a	-0.08446222
-1.282835	b}b e}e t}t	-0.08446221
-0.9855965	b}b e}e k}k	-0.08446221
-0.5770378	b}b e}e r}r	-0.3185454
-1.337769	b}b e}e z}z	-0.08446222
-1.730657	b}b e}e d}d	-0.08446222
-1.799	b}b e}e t|h}t	-0.08446222
-1.346882	b}b e}e l}l	-0.08446221
-1.730657	b}b e}e k|h}k	-0.08446222
-1.883011	b}b e}e z|t}_	-0.08446222
-1.880143	b}b e}e r}r|a	-0.08446221
-1.803768	b}b e}e l|h}l	-0.08446222
-1.200029	b}b e}e r}s	-0.2605535
-1.883011	b}b e}e l}l|e	-0.08446221
-0.3350467	b}b u}u r}r	-0.08446222
-0.8894171	b}b u}u z}z	-0.08446222
-0.4913531	b}b o}o r}r	-0.08446222
-1.110075	b}b o}o z}z	-0.08446221
-1.239514	b}b o}o t|h}t	-0.08446222
-1.290711	b}b o}o r|z}s	-0.08446221
-0.489338	b}b l}l i}i	-0.08446221
-0.5579133	b}b o}u r}r	-0.08446221
-0.5766853	b}b a}e k|h}k	-0.08446222
-0.3138116	b}b a|i}a l|l}l	-0.08446221
-0.4977054	n}n a}a </s>
-1.361521	n}n a}a t}t	-0.08446222
-1.488561	n}n a}a i}i	-0.08446222
-0.6549885	n}n a}a k}k	-0.7834322
-0.8480986	n}n a}a r}r	-0.3063109
-1.474616	n}n a}a z}z	-0.08446221
-1.779431	n}n a}a d}d	-0.08446222
-1.848512	n}n a}a k}_	-0.08446221
-1.814276	n}n a}a u}_	-0.08446221
-1.935114	n}n a}a b}g	-0.08446221
-0.5661714	n}n b}b a}a	-0.08446222
-0.5720182	n}n b}b e}e	-0.08446222
-0.8451833	n}n b}b o}o	-0.08446222
-1.140673	n}n t}t a}a	-0.08446222
-1.299598	n}n t}t i}i	-0.08446222
-0.4587234	n}n t}t z}z	-0.3854923
-0.6426249	n}n t}t e}e	-0.08446221
-0.8505535	n}n t}t u}u	-0.2094009
-1.721479	n}n t}t i}e	-0.08446221
-1.728855	n}n t}t z}z|i	-0.08446222
-0.8144331	n}n i}i </s>
-1.355553	n}n i}i n}n	-0.08446221
-0.7918132	n}n i}i t}t	-0.08446224
-0.4565181	n}n i}i k}k	-0.3854923
-1.588417	n}n i}i t|z}t	-0.08446221
-0.4194876	n}n k}k o}o	-0.08446224
-0.8272233	n}n e}e a}a	-0.5615835
-0.6617439	n}n e}e n}n	-0.6865222
-1.033499	n}n e}e t}t	-0.3854922
-0.8355208	n}n e}e k}k	-0.3854922
-0.8507315	n}n e}e z}z	-0.2605535
-1.454603	n}n e}e l}l	-0.08446221
-1.81712	n}n e}e u|r}u	-0.08446221
-1.857803	n}n e}e t|z}t	-0.08446221
-1.699637	n}n e}e i}n|_	-0.08446221
-0.5676337	n}n s}s p}p	-0.08446221
-0.9786637	n}n u}u a}a	-0.08446223
-0.454545	n}n u}u k}k	-0.0844622
-0.9861489	n}n u}u e}e	-0.08446221
-0.5645524	n}n d}d a}a	-0.08446219
-0.5832608	n}n d}d e}e	-0.2094009
-0.4943797	n}n d}d u}u	-0.2605535
-1.596561	n}n d}d è}e|e	-0.08446221
-0.4288152	n}n d|u}_ </s>
-0.3720625	n}n t|z}z t}t	-0.08446221
-0.375999	n}n g}g a}a	-0.08446221
-0.8837502	n}n g}g i}e	-0.08446221
-0.5472477	n}n i}e g}g	-0.08446222
-0.4893483	n}n o}o </s>
-0.3284488	n}n g}-|g i}i	-0.08446222
-0.551556	n}n a}e i}i	-0.0844622
-0.538908	n}n p}p a}a	-0.08446221
-0.736126	n}n p}p l}l	-0.08446221
-0.1667518	n}n k}g u}u	-0.08446221
-0.4203446	n}n d}t a}a	-0.08446223
-0.4328054	n}n d}t u}u	-0.08446221
-0.2765386	n}n a}_ </s>
-0.3832744	n}n e}i n}n	-0.08446221
-0.4042913	n}n e|i}e n}n	-0.08446222
-0.817886	n}n d|u}u </s>
-0.4813521	n}n d|u}u k}k	-0.08446223
-0.817886	n}n d|u}u e}e	-0.08446221
-0.5649896	n}n t|z}t i}a|s	-0.08446223
-0.4446068	n}n i}d|i k}k	-0.08446222
-0.230529	n}n t|k}k i}i	-0.3854922
-0.9098308	n}n t|k}k o}o	-0.08446222
-0.5551538	n}n e}_ r|a}i	-0.08446221
-0.9858228	n}n s}t|s a}a	-0.08446221
-1.026801	n}n s}t|s i}i	-0.08446221
-0.7919804	n}n s}t|s e}e	-0.08446221
-1.084142	n}n s}t|s o}o	-0.08446221
-1.155971	n}n s}t|s e|i}e	-0.08446221
-0.3438676	n}n t}_|e z}z	-0.08446221
-0.6046401	n}n t}t|e </s>
-0.5854015	n}n t}t|e a}a	-0.08446221
-0.3394484	n}n -}- e}e	-0.08446223
-0.7189868	n}n -}- m}m	-0.08446221
-0.4288152	n}n b}p e}e	-0.08446221
-0.3542921	n}n d}_|i _}e|z	-0.08446221
-0.4409113	n}n s}t|z u}u	-0.08446221
-0.3284488	n}n z|k}k i}i	-0.08446222
-0.341422	n}n é}e n}n	-0.08446222
-1.453506	t}t a}a </s>
-0.4877359	t}t a}a n}n	-0.9875522
-0.9307028	t}t a}a t}t	-0.3854921
-1.5871	t}t a}a i}i	-0.08446222
-0.9417066	t}t a}a k}k	-0.2605535
-1.090938	t}t a}a r}r	-0.3854922
-1.002833	t}t a}a s}s	-0.5615835
-1.027128	t}t a}a r}t	-0.5615835
-1.285949	t}t i}i a}a	-0.08446222
-1.371344	t}t i}i n}n	-0.08446221
-0.8654027	t}t i}i t}t	-0.2605535
-0.4746726	t}t i}i k}k	-0.7834323
-1.376288	t}t i}i z}z	-0.0844622
-1.543358	t}t i}i t|z}z	-0.08446222
-1.500948	t}t i}i l}l	-0.08446221
-1.668615	t}t i}i a}_	-0.08446221
-1.734804	t}t i}i r}r|i	-0.08446223
-0.7677183	t}t r}r a}a	-0.08446221
-0.7065221	t}t r}r i}i	-0.08446222
-0.939628	t}t r}r o}o	-0.08446221
-1.465209	t}t z}z </s>
-0.6232711	t}t z}z a}a	-0.2441631
-1.118123	t}t z}z i}i	-0.08446221
-0.4197433	t}t z}z e}e	-0.6487336
-1.02416	t}t z}z u}u	-0.08446221
-1.963409	t}t z}z k}_	-0.08446222
-1.843345	t}t z}z e}a	-0.08446221
-1.858467	t}t z}z e}i|t	-0.0844622
-1.854092	t}t z}z t}_	-0.08446221
-1.980538	t}t z}z e|n}e	-0.08446222
-1.360098	t}t e}e </s>
-0.9010344	t}t e}e a}a	-0.3397347
-0.5906118	t}t e}e n}n	-0.5896122
-0.8425736	t}t e}e k}k	-0.5615835
-0.8896581	t}t e}e r}r	-0.2605535
-1.394756	t}t e}e z}z	-0.08446222
-1.222876	t}t e}e l}l	-0.2605535
-2.194187	t}t e}e a}e|n	-0.08446221
-1.559833	t}t e}e n}n|t	-0.3854922
-2.274449	t}t e}e i}r|a	-0.08446221
-2.277701	t}t e}e t|a}_	-0.08446221
-2.268019	t}t e}e t}_	-0.08446223
-2.274449	t}t e}e o}a	-0.08446223
-2.271222	t}t e}e a}a|r	-0.08446221
-1.304241	t}t e}e i}n|_	-0.5615835
-2.277701	t}t e}e z|i}z	-0.08446223
-1.132252	t}t s}s </s>
-1.119062	t}t s}s a}a	-0.08446221
-0.7326745	t}t s}s i}i	-0.3854922
-1.079658	t}t s}s e}e	-0.08446221
-0.3925303	t}t s}s u}u	-0.306311
-0.5706649	t}t u}u </s>
-0.6864845	t}t u}u a}a	-0.4946361
-1.602902	t}t u}u n}n	-0.08446221
-1.300572	t}t u}u t}t	-0.08446222
-0.9013154	t}t u}u k}k	-0.4824023
-0.9839875	t}t u}u r}r	-0.3854922
-1.111034	t}t u}u z}z	-0.2094009
-1.325059	t}t u}u e}e	-0.1813722
-1.436344	t}t u}u t|z}z	-0.3854922
-1.918746	t}t u}u g}g	-0.08446221
-0.5012031	t}t i}e a}a	-0.08446222
-1.270865	t}t o}o b}b	-0.08446221
-0.6561325	t}t o}o t}t	-0.08446221
-0.6135893	t}t o}o r}r	-0.08446222
-1.318609	t}t o}o m}m	-0.08446221
-1.375134	t}t o}o r}r|e	-0.08446223
-0.4313765	t}t u}o a}a	-0.08446222
-0.4117252	t}t k}_ e}e	-0.08446221
-0.5491829	t}t e}a t}t	-0.08446221
-0.3563064	t}t e|i}_ ñ|o}e	-0.08446223
-0.5753491	t}t e}i r}z	-0.0844622
-0.3356083	t}t i}a|i t}t	-0.08446223
-0.5271871	t}t _}z|a z}z	-0.08446221
-0.4869	t}t z|e}z a}a	-0.08446219
-0.4470881	t}t o}a r}r	-0.08446222
-0.3293966	t}t z}e e}e	-0.08446221
-0.2386242	t}t è}e|e t}t	-0.08446221
-0.5387095	t}t _}u u}_	-0.08446221
-0.4603525	t}t z}z|_ _}e|z	-0.08446221
-0.4603525	t}t i}_ t|z}_	-0.08446222
-0.673955	t}t x}x a}a	-0.08446221
-0.7506136	t}t x}x a}e	-0.08446221
-0.4366392	t}t a}o t}t	-0.08446221
-0.3190829	t}t z}z|i a}a	-0.08446221
-0.447846	i}i a}a </s>
-1.435635	i}i a}a n}n	-0.08446223
-1.083499	i}i a}a t}t	-0.08446219
-1.100686	i}i a}a k}k	-0.3854922
-0.648117	i}i a}a r}r	-0.3275002
-1.536465	i}i a}a z}z	-0.08446222
-1.175394	i}i a}a g}g	-0.08446223
-1.937634	i}i a}a k}r	-0.08446223
-0.2680089	i}i b}b e}e	-0.08446222
-0.9096998	i}i b}b u}u	-0.08446222
-0.878636	i}i n}n </s>
-1.533239	i}i n}n b}b	-0.08446221
-0.6329494	i}i n}n t}t	-0.3854922
-1.192405	i}i n}n i}i	-0.08446221
-1.691581	i}i n}n k}k	-0.08446221
-0.9109936	i}i n}n e}e	-0.08446223
-1.750481	i}i n}n s}s	-0.08446222
-1.619253	i}i n}n g}g	-0.08446222
-1.682497	i}i n}n o}o	-0.08446221
-1.790849	i}i n}n g}-|g	-0.08446223
-1.559519	i}i n}n d}t	-0.08446221
-1.790849	i}i n}n t}_|e	-0.0844622
-1.790849	i}i n}n d}_|i	-0.0844622
-1.306195	i}i t}t </s>
-1.382837	i}i t}t a}a	-0.08446222
-1.251395	i}i t}t i}i	-0.08446221
-0.456883	i}i t}t z}z	-0.6073407
-0.7862977	i}i t}t e}e	-0.1356147
-1.719682	i}i t}t s}s	-0.08446222
-0.620283	i}i t}t u}u	-0.2807568
-2.096526	i}i t}t e}i	-0.08446221
-2.11433	i}i t}t i}a|i	-0.08446222
-2.105337	i}i t}t _}z|a	-0.08446222
-2.105337	i}i t}t _}u	-0.08446222
-0.3293966	i}i l}l|a </s>
-0.5372408	i}i l|l}l a}a	-0.3275002
-0.7465311	i}i l|l}l e}e	-0.306311
-0.5480938	i}i l|l}l u}u	-0.452439
-1.541786	i}i l|l}l a}e	-0.08446223
-1.549592	i}i l|l}l a}_	-0.08446219
-1.562923	i}i l|l}l a}k|i	-0.08446221
-0.3832157	i}i k}k </s>
-0.7912704	i}i k}k i}i	-0.08446228
-0.4523952	i}i k}k o}o	-0.5615835
-0.447764	i}i r}r a}a	-0.3275002
-0.5857965	i}i r}r i}i	-0.306311
-0.7158555	i}i r}r e}e	-0.08446221
-1.857526	i}i r}r u|r}u	-0.08446221
-1.792161	i}i r}r e}e|n	-0.08446221
-1.862042	i}i r}r i|b}i	-0.08446222
-0.8678816	i}i z}z </s>
-1.113186	i}i z}z a}a	-0.08446222
-1.384913	i}i z}z t}t	-0.08446221
-0.6614995	i}i z}z i}i	-0.08446223
-0.895103	i}i z}z k}k	-0.3854922
-1.682479	i}i z}z i}u	-0.08446221
-0.7681655	i}i z}z u}u	-0.2094009
-1.58723	i}i z}z t}k|i	-0.08446221
-1.296577	i}i e}e </s>
-0.2724674	i}i e}e n}n	-0.2885822
-1.304098	i}i e}e t}t	-0.08446221
-1.295881	i}i e}e k}k	-0.08446221
-1.226157	i}i e}e r}r	-0.08446221
-1.355082	i}i e}e l}l	-0.08446221
-1.629993	i}i e}e n}n|t	-0.08446223
-0.2144745	i}i t|s}s t}t	-0.08446221
-0.7963699	i}i s}s t}t	-0.08446221
-0.8494654	i}i s}s u}u	-0.08446221
-1.047687	i}i s}s o}o	-0.08446221
-1.072745	i}i s}s p}p	-0.08446222
-0.5225882	i}i u}u k}k	-0.08446221
-0.6825908	i}i d}d a}a	-0.08446221
-0.2840364	i}i d}d e}e	-0.08446223
-0.498534	i}i m}m a}a	-0.08446222
-0.4501463	i}i m}m e}e	-0.08446221
-0.1116538	i}i h}h o}o	-0.08446222
-0.8655279	i}i t|z}z t}t	-0.08446223
-0.4812916	i}i t|z}z k}k	-0.2605535
-0.489958	i}i t|z}z u}u	-0.1813722
-1.061708	i}i t|z}z a}k|i	-0.08446221
-0.5458598	i}i g}g a}a	-0.08446221
-0.9057135	i}i g}g i}i	-0.08446221
-0.3536996	i}i g}g u}u	-0.08446222
-0.57361	i}i p|h}p a}a	-0.08446221
-0.778488	i}i p|h}p i}i	-0.08446221
-0.8740485	i}i t|h}t a}a	-0.08446221
-0.2562907	i}i t|h}t o}o	-0.3854922
-0.6698696	i}i o}o </s>
-1.29256	i}i o}o a}a	-0.08446222
-0.9523592	i}i o}o n}n	-0.2605535
-0.8928005	i}i o}o t}t	-0.08446221
-1.416242	i}i o}o k}k	-0.08446221
-0.9398684	i}i o}o z}z	-0.08446222
-1.012421	i}i o}o n|e}_	-0.2605535
-0.6321073	i}i l}l </s>
-0.613317	i}i l}l t}t	-0.3854922
-1.344666	i}i l}l t}_	-0.08446221
-1.344666	i}i l}l è}e	-0.08446219
-0.3210676	i}i k|h}k a}a	-0.08446222
-0.627532	i}i k|h}k u}u	-0.08446223
-0.4342479	i}i ñ}n a}a	-0.3854923
-1.209159	i}i ñ}n i}i	-0.08446222
-0.7927292	i}i ñ}n e}e	-0.1636435
-1.259439	i}i ñ}n u}u	-0.08446221
-1.26677	i}i ñ}n o}o	-0.08446221
-1.350789	i}i ñ}n -}-	-0.08446221
-0.1416691	i}i a}e|n k}_	-0.08446222
-0.377106	i}i n|h}n e}e	-0.0844622
-0.03075679	i}i n}n|t z}z	-0.08446221
-0.6125729	i}i a}e t}t	-0.08446221
-1.098627	i}i a}e k}k	-0.08446221
-0.4832035	i}i a}e z}z	-0.3854922
-0.605924	i}i p}p a}a	-0.08446221
-0.9762955	i}i p}p t}t	-0.08446222
-0.6155248	i}i p}p i}i	-0.08446222
-0.8930088	i}i k}g a}a	-0.08446221
-0.1519639	i}i k}g u}u	-0.2605535
-0.4647558	i}i a}_ </s>
-0.831794	i}i a}_ r}r	-0.08446221
-1.072426	i}i a}_ z}z	-0.08446222
-1.105132	i}i a}_ d|u}_	-0.08446223
-0.4366392	i}i x}z t}t	-0.08446221
-0.3208301	i}i z}t|z </s>
-0.8184792	i}i z}t|z a}a	-0.08446221
-0.5414839	i}i t|z}_ a}o	-0.08446222
-1.009211	i}i k|a}o </s>
-0.7654482	i}i k|a}o n}n	-0.08446221
-0.3796266	i}i k|a}o l}l	-0.3854922
-0.4099864	i}i l|h}l a}a	-0.08446221
-0.5696705	i}i l|h}l u}u	-0.08446221
-0.3293966	i}i a|l}n </s>
-0.2411242	i}i t|z}t a}a	-0.08446222
-0.5364156	i}i e}_ k}k	-0.08446221
-0.355802	i}i o|g}g u|n}u	-0.08446222
-0.4288152	i}i t}d e}e	-0.08446222
-0.6643935	i}i d}r e}e	-0.08446222
-0.6854146	i}i d}r u}u	-0.08446221
-0.02320807	i}i _}e|z a}a	-0.3854922
-0.08968798	i}i a}e|z z}a|i	-0.5615835
-0.5272392	i}i r}r|e e}n|e	-0.08446221
-0.3356083	i}i t|a}n t}t	-0.08446221
-0.4975988	i}i x}x t}t	-0.08446221
-0.3190829	i}i t}t|i a}a	-0.08446221
-0.3284488	i}i s}s|t i}i	-0.08446221
-0.3293966	i}i t}t|z e}e	-0.08446222
-0.4577945	i}i b}p e}i	-0.08446221
-0.3293966	i}i f}n|f e}e	-0.08446222
-0.4276239	i}i x}s i}i	-0.08446221
-0.3419101	i}i d|i}o k}k	-0.08446221
-0.6046401	i}i r}r|i </s>
-0.5854015	i}i r}r|i a}a	-0.08446221
-0.3190829	i}i ñ|h}n a}a	-0.08446222
-0.3190829	i}i d}n|d a}a	-0.08446222
-0.3404477	i}i k}n|g o}o	-0.08446221
-0.3563064	i}i z|k}e o|n}n	-0.08446223
-0.5096527	l|l}l a}a </s>
-0.9733619	l|l}l a}a t}t	-0.08446221
-1.003128	l|l}l a}a k}k	-0.08446222
-0.9227598	l|l}l a}a r}r	-0.08446221
-0.5969404	l|l}l i}i z}t|z	-0.08446221
-0.8505838	l|l}l e}e </s>
-0.8322051	l|l}l e}e a}a	-0.08446223
-0.8025029	l|l}l e}e r}r	-0.08446221
-0.8970785	l|l}l u}u </s>
-0.5294418	l|l}l u}u a}a	-0.1636435
-0.9780456	l|l}l u}u z}z	-0.08446222
-1.177688	l|l}l u}u g}g	-0.08446221
-0.6954486	l|l}l a}e n}n	-0.08446221
-0.8457112	l|l}l a}e l}l	-0.08446221
-0.3925707	l|l}l a}_ </s>
-0.6702651	l|l}l a}_ t}t	-0.08446221
-0.5326728	l|l}l a}k|i z}z	-0.08446221
-1.246447	k}k a}a b}b	-0.08446221
-1.020877	k}k a}a n}n	-0.08446222
-0.6214953	k}k a}a t}t	-0.3854922
-0.9575057	k}k a}a r}r	-0.08446221
-1.111283	k}k a}a z}z	-0.08446221
-1.280166	k}k a}a l}l	-0.08446221
-0.5498934	k}k t}t o}o	-0.08446221
-0.5319743	k}k i}i </s>
-1.156369	k}k i}i a}a	-0.0844622
-0.8618572	k}k i}i n}n	-0.3854922
-0.9359803	k}k i}i t}t	-0.08446221
-1.510096	k}k i}i r}r	-0.08446221
-1.200366	k}k i}i z}z	-0.3854922
-1.552808	k}k i}i e}e	-0.08446221
-2.005715	k}k i}i t|s}s	-0.08446223
-1.868733	k}k i}i d}d	-0.08446223
-1.269541	k}k i}i t|z}z	-0.3854922
-1.808029	k}k i}i g}g	-0.08446221
-2.014592	k}k i}i t}t|z	-0.08446223
-0.6735359	k}k r}r a}a	-0.08446222
-0.6236132	k}k r}r i}i	-0.08446222
-0.585307	k}k e}e </s>
-0.5690532	k}k e}e r}r	-0.5615835
-1.552623	k}k e}e t|z}z	-0.0844622
-1.436197	k}k e}e g}g	-0.08446222
-1.592695	k}k e}e n}e|n	-0.08446221
-1.592695	k}k e}e x}x	-0.08446221
-0.816169	k}k u}u n}n	-0.08446221
-0.8612102	k}k u}u e}e	-0.08446221
-0.8963766	k}k u}u s}s	-0.08446221
-0.5265935	k}k i}e t}t	-0.08446221
-0.5274364	k}k o}o </s>
-0.8367597	k}k o}o a}a	-0.2605535
-1.631991	k}k o}o n}n	-0.08446221
-1.413792	k}k o}o t}t	-0.08446221
-0.8999844	k}k o}o r}r	-0.0844622
-1.579077	k}k o}o z}z	-0.08446221
-1.263822	k}k o}o e}e	-0.08446221
-1.752893	k}k o}o m}m	-0.08446222
-1.272629	k}k o}o t|z}z	-0.3854922
-1.993657	k}k o}o n}n|t	-0.08446222
-1.977191	k}k o}o a}_	-0.08446221
-1.997873	k}k o}o k}a|k	-0.08446221
-2.00643	k}k o}o f}f|o	-0.0844622
-2.00643	k}k o}o i}_|d	-0.0844622
-0.489338	k}k l}l i}i	-0.08446221
-0.4992446	k}k u}_ i}u	-0.08446221
-0.3832744	k}k e}i n}n	-0.08446221
-0.1940581	k}k e|i}e e}e	-0.4824022
-1.118777	k}k e|i}e o}e	-0.08446223
-0.5222985	k}k a}i|o </s>
-0.5348055	k}k a}i|o n}n	-0.08446222
-0.1853796	k}k e}_ i}i	-0.3854922
-0.3356083	k}k e}o t}t	-0.08446221
-0.3563064	k}k a}a|l r}a|r	-0.08446223
-0.4877756	a|b}d a}i r}r	-0.08446221
-0.4175696	a}i t}t e}e	-0.08446221
-0.6008798	a}i r}r i}u	-0.08446222
-0.4288152	a}i u}n e}e	-0.08446221
-0.8092729	r}r a}a </s>
-1.196788	r}r a}a b}b	-0.2605535
-1.087263	r}r a}a n}n	-0.08446221
-0.9745752	r}r a}a t}t	-0.510431
-0.9207659	r}r a}a i}i	-0.2393642
-0.9894225	r}r a}a k}k	-0.306311
-1.384594	r}r a}a r}r	-0.08446221
-0.9173654	r}r a}a z}z	-0.2605535
-2.076681	r}r a}a t|s}s	-0.08446219
-1.462968	r}r a}a m}m	-0.08446225
-1.973548	r}r a}a t|z}z	-0.08446221
-1.388325	r}r a}a g}g	-0.3854922
-2.133936	r}r a}a n}n|t	-0.08446221
-2.073046	r}r a}a p}p	-0.08446221
-2.021256	r}r a}a u}_	-0.08446221
-2.207234	r}r a}a z}k|e	-0.08446221
-2.207234	r}r a}a i}i|n	-0.08446223
-0.4729038	r}r b}b i}i	-0.08446221
-0.5660744	r}r n}n u}u	-0.0844622
-1.085505	r}r t}t a}a	-0.08446221
-0.8272327	r}r t}t i}i	-0.08446221
-0.5973546	r}r t}t z}z	-0.5615835
-1.018706	r}r t}t e}e	-0.08446221
-0.5833322	r}r t}t u}u	-0.3854922
-1.627292	r}r t}t e|i}_	-0.08446221
-0.8967346	r}r i}i </s>
-1.031423	r}r i}i a}a	-0.2305902
-1.922368	r}r i}i b}b	-0.08446222
-0.8755335	r}r i}i t}t	-0.3854922
-0.5448414	r}r i}i k}k	-0.7834323
-1.570094	r}r i}i r}r	-0.08446221
-1.246823	r}r i}i e}e	-0.08446225
-1.116819	r}r i}i s}s	-0.2605535
-1.694305	r}r i}i o}o	-0.08446221
-2.071611	r}r i}i a}e|n	-0.08446219
-1.99932	r}r i}i n}n|t	-0.08446221
-2.07459	r}r i}i s}s|t	-0.08446223
-0.167125	r}r k}k i}i	-0.08446221
-0.6629741	r}r r}r a}a	-0.3854922
-0.7489755	r}r r}r i}i	-0.2605534
-0.6847544	r}r r}r e}e	-0.1813722
-1.463773	r}r r}r u}u	-0.08446221
-1.082764	r}r r}r o}o	-0.08446221
-1.723303	r}r r}r u}o	-0.08446221
-1.826444	r}r r}r o}u	-0.08446221
-1.812721	r}r r}r a}e	-0.08446221
-1.819528	r}r r}r e}a	-0.08446221
-1.829944	r}r r}r e|i}e	-0.08446222
-0.5096442	r}r i}u z}z	-0.08446222
-1.271564	r}r e}e </s>
-1.237579	r}r e}e a}a	-0.08446222
-0.4938963	r}r e}e n}n	-0.6865222
-1.281004	r}r e}e t}t	-0.08446221
-1.605812	r}r e}e i}i	-0.08446221
-0.9946622	r}r e}e k}k	-0.2605535
-1.185046	r}r e}e r}r	-0.08446221
-1.818473	r}r e}e t|s}s	-0.08446223
-1.635966	r}r e}e s}s	-0.08446221
-1.586952	r}r e}e g}g	-0.08446222
-1.346165	r}r e}e l}l	-0.08446221
-1.823564	r}r e}e a}e|n	-0.08446221
-1.887482	r}r e}e i|t}t	-0.0844622
-1.899512	r}r e}e z}i|z	-0.08446221
-1.902572	r}r e}e t}n	-0.08446223
-1.005666	r}r u}u a}a	-0.08446221
-1.02927	r}r u}u k}k	-0.08446221
-0.9554226	r}r u}u r}r	-0.08446221
-1.016326	r}r u}u e}e	-0.08446221
-1.067508	r}r u}u s}s	-0.08446221
-1.306042	r}r u}u i|t}t	-0.08446222
-0.5064996	r}r d}d a}a	-0.08446221
-0.648647	r}r d}d i}i	-0.08446221
-0.375999	r}r g}g a}a	-0.08446221
-0.5250026	r}r g}g u}u	-0.08446221
-0.5090991	r}r t|h}t a}a	-0.3854922
-0.661401	r}r t|h}t e}e	-0.1813722
-0.539821	r}r t|h}t u}u	-0.08446224
-1.124737	r}r o}o b}b	-0.0844622
-0.9624685	r}r o}o t}t	-0.08446221
-1.172481	r}r o}o m}m	-0.08446221
-1.210644	r}r o}o g}g	-0.08446223
-1.177577	r}r o}o i|n}i	-0.08446221
-0.09650685	r}r k|h}k a}a	-0.1813722
-0.6522997	r}r u}o s}s	-0.08446224
-0.8343951	r}r u}o m}m	-0.08446221
-0.4416283	r}r o}u n}n	-0.08446222
-0.3091521	r}r a}e t}t	-0.08446221
-0.5571246	r}r e}a n}n	-0.0844622
-0.4276239	r}r t|z}d i}i	-0.08446222
-0.4677488	r}r z}t|z e}e	-0.08446222
-0.9173926	r}r e}i </s>
-0.8889494	r}r e}i a}a	-0.08446221
-0.9173926	r}r e}i e}e	-0.08446222
-0.4042913	r}r e|i}e n}n	-0.08446222
-0.4946618	r}r u|r}u g}g	-0.08446222
-0.6046401	r}r e}e|n </s>
-0.6164223	r}r e}e|n t}t	-0.08446222
-0.2411242	r}r t|z}t a}a	-0.08446222
-0.558357	r}r e}_ o}t|a	-0.08446223
-0.3547948	r}r è}a|i k}e|k	-0.08446221
-0.3547948	r}r é}a|i k}e|k	-0.08446221
-0.4288152	r}r k}t e}e	-0.08446222
-0.4438269	r}r s}t|s e}e	-0.08446221
-0.341422	r}r e}d|i n}n	-0.08446222
-0.4877756	r}r h|a}a z}z	-0.08446221
-0.4446068	r}r e}l|e k}k	-0.08446222
-0.4536281	r}r h|i}i a}a	-0.08446221
-0.8243648	r}r h|o}o a}a	-0.08446221
-0.8796417	r}r h|o}o t}t	-0.08446221
-0.8550853	r}r h|o}o i}i	-0.08446221
-0.9021081	r}r h|o}o k}k	-0.08446221
-0.4877756	r}r r|e}_ r}r	-0.08446221
-0.3190829	r}r i|b}i a}a	-0.08446221
-0.3552981	r}r a}o|p n}e|n	-0.08446221
-0.1675682	r}r è}e n}n	-0.08446222
-0.3527875	r}r d|o}i a}_	-0.08446222
-0.3532884	r}r a|p}e e}_	-0.08446221
-0.3293966	r}r i}i|o e}e	-0.08446221
-0.4350572	i}u l|l}l u}u	-0.08446223
-0.6012834	i}u z}z i|o}a	-0.0844622
-0.2637959	i}u g}g a}a	-0.08446221
-1.24096	z}z a}a </s>
-1.605492	z}z a}a b}b	-0.08446221
-1.265073	z}z a}a n}n	-0.08446223
-1.04826	z}z a}a t}t	-0.08446221
-0.7519543	z}z a}a i}i	-0.3149111
-1.077198	z}z a}a k}k	-0.2605535
-0.9989443	z}z a}a r}r	-0.2605535
-1.391202	z}z a}a z}z	-0.08446221
-1.675976	z}z a}a u}u	-0.08446222
-1.789045	z}z a}a d}d	-0.08446221
-1.069752	z}z a}a t|z}z	-0.5615835
-1.963183	z}z a}a p|h}p	-0.08446221
-1.251435	z}z a}a l}l	-0.3854922
-1.897072	z}z a}a p}p	-0.08446221
-1.795181	z}z a}a i|t}t	-0.0844622
-2.035786	z}z a}a l|h}l	-0.08446223
-1.851859	z}z a}a n}i|n	-0.08446223
-2.041196	z}z a}a u|n}u	-0.08446221
-1.970061	z}z a}a t|u}n	-0.08446221
-0.3596066	z}z b}b a}a	-0.08446221
-0.8633022	z}z t}t a}a	-0.08446222
-0.4473061	z}z t}t e}e	-0.08446222
-0.8771458	z}z t}t u}u	-0.08446222
-1.289551	z}z t}t è}e|e	-0.08446223
-1.331557	z}z i}i </s>
-0.6122876	z}z i}i a}a	-0.5896123
-1.449079	z}z i}i n}n	-0.08446222
-1.248397	z}z i}i t}t	-0.08446221
-1.376036	z}z i}i k}k	-0.08446221
-1.037584	z}z i}i r}r	-0.08446223
-1.422474	z}z i}i e}e	-0.08446222
-1.677696	z}z i}i g}g	-0.08446221
-1.089724	z}z i}i o}o	-0.3854922
-1.165236	z}z i}i a}e	-0.08446221
-1.182408	z}z i}i p}p	-0.08446219
-1.753619	z}z i}i k}g	-0.08446222
-0.5475996	z}z k}k i}i	-0.08446221
-1.027927	z}z k}k e}e	-0.08446221
-0.5281299	z}z k}k o}o	-0.3854922
-1.288276	z}z k}k e}_	-0.08446222
-0.4763139	z}z a}i t}t	-0.08446223
-0.516889	z}z i}u g}g	-0.08446222
-0.355802	z}z i|o}a s}l|e	-0.08446221
-1.039884	z}z e}e </s>
-1.023061	z}z e}e a}a	-0.1813722
-0.5270743	z}z e}e n}n	-0.2605535
-1.348537	z}z e}e t}t	-0.08446221
-1.338568	z}z e}e k}k	-0.08446221
-0.8343446	z}z e}e r}r	-0.08446221
-1.841061	z}z e}e u}u	-0.08446222
-1.411346	z}z e}e l}l	-0.08446221
-1.854009	z}z e}e u|r}u	-0.08446221
-1.70115	z}z e}e i}n|_	-0.08446221
-1.854009	z}z e}e _}n|_	-0.08446221
-1.923365	z}z e}e n|e}_	-0.08446221
-1.926038	z}z e}e a|k}n	-0.08446223
-0.4938003	z}z u}u </s>
-0.6339029	z}z u}u n}n	-0.3275002
-1.149668	z}z u}u t}t	-0.3854922
-1.492798	z}z u}u z}z	-0.08446221
-0.9685434	z}z u}u e}e	-0.2605535
-1.014971	z}z u}u l}l	-0.5615835
-1.979844	z}z u}u t}e|t	-0.08446221
-1.98129	z}z u}u n}n|_	-0.08446221
-0.4767258	z}z i}e n}n	-0.08446221
-0.4858115	z}z i}e l|l}l	-0.3854922
-0.8512199	z}z o}o i|n}i	-0.08446223
-0.8995661	z}z o}o i|ñ}i	-0.08446223
-0.5312421	z}z k}_ i}i	-0.08446221
-0.3091521	z}z a}e t}t	-0.08446221
-0.5588165	z}z i|t}t z|e}e	-0.08446222
-0.148925	z}z i|n}i o}o	-0.1636435
-0.7837628	z}z e}a </s>
-0.9883523	z}z e}a i}i	-0.08446221
-1.042012	z}z e}a k}k	-0.08446221
-0.8189128	z}z e}a r}r	-0.08446221
-0.5758218	z}z a}_ r|a}i	-0.08446221
-0.5770448	z}z u}_ t|z}t	-0.0844622
-0.4754886	z}z e}i r}e|z	-0.08446222
-0.171838	z}z e}i|t _}z|a	-0.3854922
-0.8010462	z}z t}_ _}e|z	-0.08446221
-0.8045741	z}z t}_ e}d	-0.08446222
-0.1341899	z}z t}k|i e}e	-0.08446222
-0.5854015	z}z k}_|g a}a	-0.08446221
-0.6046401	z}z k}_|g e}e	-0.08446221
-0.5854015	z}z p}_|b a}a	-0.08446222
-0.6538175	z}z p}_|b a|i}a	-0.08446221
-0.9461605	z}z t}_|d a}a	-0.0844622
-0.9873103	z}z t}_|d i}i	-0.08446221
-0.9916481	z}z t}_|d e}e	-0.08446221
-1.03759	z}z t}_|d u}u	-0.08446222
-1.123001	z}z t}_|d a|i}a	-0.08446221
-1.108498	z}z t}_|d e}i	-0.08446221
-0.5128895	z}z è}e t}t	-0.08446221
-0.3488005	z}z -}i g}g	-0.08446222
-0.3190829	z}z e|n}e a}a	-0.08446221
-0.3552981	z}z u}e|z k}a|k	-0.08446221
-0.1308734	i|o}a s}l|e a}a	-0.08446221
-0.1795875	s}l|e a}a </s>
-0.7667052	e}e a}a </s>
-1.952262	e}e a}a b}b	-0.08446221
-0.5299263	e}e a}a n}n	-1.163643
-0.7130519	e}e a}a k}k	-0.9875522
-0.8277922	e}e a}a r}r	-0.6865223
-1.040998	e}e a}a z}z	-0.6865222
-1.930864	e}e a}a g}g	-0.08446223
-2.126284	e}e a}a k}_	-0.08446221
-0.5661714	e}e b}b a}a	-0.08446221
-0.5720182	e}e b}b e}e	-0.08446222
-0.8451833	e}e b}b o}o	-0.08446221
-0.480096	e}e n}n </s>
-0.8402352	e}e n}n a}a	-0.4994357
-2.018578	e}e n}n b}b	-0.08446221
-1.157315	e}e n}n t}t	-0.2605535
-1.252966	e}e n}n i}i	-0.3854922
-1.050227	e}e n}n e}e	-0.4824022
-1.182103	e}e n}n d}d	-0.1813721
-2.320729	e}e n}n d|u}_	-0.08446222
-1.614432	e}e n}n g}g	-0.3854922
-1.62403	e}e n}n p}p	-0.3854922
-1.59158	e}e n}n d}t	-0.08446222
-2.292692	e}e n}n a}_	-0.08446221
-1.418943	e}e n}n d|u}u	-0.3063109
-2.043343	e}e n}n t|k}k	-0.08446221
-2.297241	e}e n}n e}_	-0.08446222
-1.39383	e}e n}n s}t|s	-0.2605535
-2.320729	e}e n}n s}t|z	-0.08446221
-1.586131	e}e t}t </s>
-0.264304	e}e t}t a}a	-0.5316202
-0.8449126	e}e t}t i}i	-0.2605535
-1.097311	e}e t}t s}s	-0.08446218
-1.155297	e}e t}t x}x	-0.08446219
-0.450054	e}e i}i </s>
-1.083952	e}e i}i l|l}l	-0.08446221
-1.14824	e}e i}i ñ}n	-0.08446221
-0.4707856	e}e k}k </s>
-1.511506	e}e k}k a}a	-0.08446221
-0.599199	e}e k}k i}i	-0.3854922
-1.477904	e}e k}k e}e	-0.08446221
-0.5894972	e}e k}k o}o	-0.4366448
-1.669942	e}e k}k e|i}e	-0.08446221
-1.949954	e}e k}k e}o	-0.08446222
-1.592854	e}e r}r </s>
-0.5737167	e}e r}r a}a	-0.3670088
-2.021998	e}e r}r n}n	-0.08446221
-0.6743312	e}e r}r i}i	-0.2807569
-1.893444	e}e r}r k}k	-0.08446221
-1.04978	e}e r}r r}r	-0.151409
-0.9046506	e}e r}r e}e	-0.1636434
-1.628669	e}e r}r u}u	-0.08446222
-1.40529	e}e r}r t|h}t	-0.0844622
-2.006575	e}e r}r e}e|n	-0.08446221
-2.14994	e}e r}r t|z}t	-0.08446221
-2.14994	e}e r}r e}_	-0.08446221
-2.188825	e}e r}r è}a|i	-0.08446222
-2.188825	e}e r}r é}a|i	-0.08446222
-2.162519	e}e r}r s}t|s	-0.08446222
-2.188825	e}e r}r e}d|i	-0.08446221
-2.175473	e}e r}r h|a}a	-0.08446221
-2.182098	e}e r}r h|i}i	-0.08446221
-2.006575	e}e r}r h|o}o	-0.08446221
-2.168947	e}e r}r è}e	-0.08446219
-0.4961283	e}e z}z </s>
-0.6117545	e}e z}z a}a	-0.3275003
-1.861065	e}e z}z b}b	-0.08446221
-1.290345	e}e z}z i}i	-0.08446222
-1.408576	e}e z}z k}k	-0.08446221
-1.111575	e}e z}z u}u	-0.08446221
-1.647767	e}e z}z i}e	-0.08446223
-1.75475	e}e z}z t}_	-0.08446222
-1.900434	e}e z}z k}_|g	-0.08446223
-1.900434	e}e z}z p}_|b	-0.08446223
-1.900434	e}e z}z t}_|d	-0.08446222
-1.900434	e}e z}z -}i	-0.08446221
-0.3131459	e}e t|s}s t}t	-0.08446221
-0.7953814	e}e t|s}s k}k	-0.0844622
-1.023107	e}e s}s </s>
-0.9775818	e}e s}s t}t	-0.08446222
-0.483795	e}e s}s k}k	-0.2605535
-0.9705139	e}e s}s e}e	-0.08446221
-1.408039	e}e s}s è}e	-0.08446219
-0.498218	e}e u}u r}r	-0.08446222
-0.568336	e}e d}d a}a	-0.08446221
-0.7370105	e}e d}d i}i	-0.0844622
-0.6223569	e}e d}d e}e	-0.08446221
-0.498534	e}e m}m a}a	-0.08446223
-0.4501463	e}e m}m e}e	-0.08446222
-0.2623355	e}e h}h o}o	-0.08446222
-0.1242472	e}e t|z}z u}u	-0.3854922
-0.5166181	e}e g}g a}a	-0.08446221
-0.7044427	e}e g}g i}i	-0.209401
-0.4338449	e}e g}g u}u	-0.5615835
-1.226598	e}e g}g o}o	-0.08446222
-0.3206508	e}e p|h}p e}e	-0.0844622
-0.8729782	e}e t|h}t i}i	-0.08446221
-0.6429824	e}e t|h}t e}e	-0.08446223
-0.5696565	e}e t|h}t o}o	-0.0844622
-1.116581	e}e t|h}t a}e	-0.08446221
-1.519926	e}e l}l </s>
-0.170734	e}e l}l a}a	-0.7212844
-1.34022	e}e l}l e}e	-0.0844622
-1.754034	e}e l}l k|h}k	-0.0844622
-1.778056	e}e l}l e}e|s	-0.08446222
-1.756639	e}e l}l e}a	-0.08446221
-1.761895	e}e l}l e}_	-0.08446221
-0.1859945	e}e k|h}k a}a	-0.0844622
-0.8036233	e}e k|h}k u}u	-0.0844622
-0.06508335	e}e a}e|n k}_	-0.3854922
-0.02026063	e}e n}n|t z}z	-0.2605535
-0.2917922	e}e i|t}t e}e	-0.08446222
-0.1425939	e}e i}r|a ñ}i|n	-0.08446223
-0.3527875	e}e z|t}_ a}_	-0.08446221
-0.4629256	e}e r}r|a o|r}u	-0.08446223
-0.1780603	e}e u|r}u k}k	-0.3854922
-0.3419101	e}e t|a}_ k}k	-0.08446221
-0.3579433	e}e t}_ a}a	-0.08446221
-0.4439887	e}e o}a n}n	-0.08446222
-0.4099864	e}e l|h}l a}a	-0.08446221
-0.8107101	e}e l|h}l a}e	-0.08446221
-0.2411242	e}e t|z}t a}a	-0.08446222
-0.4366392	e}e z}i|z t}t	-0.08446223
-0.5264917	e}e a}a|r n}e|n	-0.08446221
-0.2353008	e}e n}e|n </s>
-0.6164223	e}e r}s t}t	-0.08446222
-0.6508238	e}e r}s t|z}t	-0.08446222
-0.1103063	e}e i}n|_ n}d|i	-0.6865222
-1.123177	e}e i}n|_ n}i|t	-0.0844622
-0.7581873	e}e _}n|_ i|n}i	-0.08446221
-0.7620244	e}e _}n|_ n}d|i	-0.08446223
-0.4809969	e}e n|e}_ u}u	-0.08446222
-0.4439887	e}e z}z|_ n}n	-0.08446221
-0.3284488	e}e j}g i}i	-0.08446221
-0.6839812	e}e f}f </s>
-0.3323851	e}e f}f a}a	-0.08446221
-0.3552981	e}e m}m|a _}n|_	-0.08446221
-0.3190829	e}e r|r}r a}a	-0.08446221
-0.484373	e}e r|e}_ n}n	-0.08446222
-0.5235144	e}e x}x o}u	-0.08446223
-0.6323285	e}e t}z|_ z}z	-0.0844622
-0.6538175	e}e t}z|_ z|e}z	-0.08446222
-0.3293966	e}e x}t|s e}e	-0.08446221
-0.3563064	e}e l}l|e a}r|a	-0.08446222
-0.3293966	e}e p|h}f e}e	-0.08446221
-0.3507894	e}e t}n s}s	-0.08446222
-0.3293966	e}e a|k}n </s>
-0.3293966	e}e z|i}z </s>
-0.9387447	t|s}s t}t a}a	-0.08446222
-0.2755857	t|s}s t}t e}e	-0.306311
-0.9510757	t|s}s t}t u}u	-0.08446219
-0.526505	t|s}s i}i k}k	-0.08446221
-0.442316	t|s}s k}k i}i	-0.08446221
-0.3563064	t|s}s b|e}p h|e}e	-0.0844622
-1.098547	s}s a}a n}n	-0.08446221
-1.093917	s}s a}a t}t	-0.08446219
-1.1346	s}s a}a k}k	-0.08446222
-0.7330626	s}s a}a r}r	-0.08446221
-1.345347	s}s a}a g}g	-0.08446223
-0.8870276	s}s a}a l}l	-0.0844622
-1.597768	s}s a}a m|e}z	-0.08446221
-1.496454	s}s a}a i|t}t	-0.0844622
-1.635342	s}s a}a s|-}s	-0.08446223
-0.4794059	s}s n}n a}a	-0.08446221
-1.044113	s}s t}t a}a	-0.08446222
-1.195575	s}s t}t i}i	-0.08446221
-0.5151839	s}s t}t e}e	-0.3397347
-0.7278843	s}s t}t u}u	-0.08446221
-0.8382922	s}s t}t o}o	-0.08446222
-1.575743	s}s t}t e}a	-0.08446221
-0.7375232	s}s i}i </s>
-1.162687	s}s i}i a}a	-0.08446222
-0.7517088	s}s i}i k}k	-0.08446222
-1.18341	s}s i}i r}r	-0.08446221
-1.244171	s}s i}i z}z	-0.0844622
-1.283133	s}s i}i o}o	-0.08446221
-1.541278	s}s i}i n|h}n	-0.08446221
-0.6932032	s}s k}k e}e	-0.08446221
-0.8111682	s}s k}k u}u	-0.08446222
-0.493035	s}s z}z i}i	-0.08446222
-1.088893	s}s e}e a}a	-0.08446222
-0.4067721	s}s e}e n}n	-0.209401
-1.112143	s}s e}e k}k	-0.08446221
-1.305308	s}s e}e g}g	-0.08446221
-1.442013	s}s e}e p|h}f	-0.08446223
-0.9278363	s}s u}u </s>
-1.072613	s}s u}u a}a	-0.08446222
-1.020243	s}s u}u n}n	-0.08446224
-0.6470285	s}s u}u e}e	-0.08446222
-1.134455	s}s u}u s}s	-0.08446222
-1.369182	s}s u}u k|h}k	-0.08446222
-0.9305434	s}s o}o i}i	-0.08446221
-0.8146455	s}s o}o r}r	-0.08446222
-1.095748	s}s o}o s}s	-0.08446222
-1.189828	s}s o}o l|h}l	-0.08446219
-0.5471228	s}s p}p i}i	-0.08446222
-0.8409	s}s p}p o}o	-0.08446221
-0.3773708	s}s i|n}i o}o	-0.08446223
-0.5116246	s}s a|i}a n}n	-0.08446222
-0.3190829	s}s i|n}n a}a	-0.08446221
-0.3563064	s}s p|o}a r}i	-0.0844622
-0.1675682	s}s è}e n}n	-0.08446222
-0.5843767	u}u a}a </s>
-0.7394705	u}u a}a n}n	-0.7834323
-0.84881	u}u a}a k}k	-0.6865222
-0.7284022	u}u a}a r}r	-0.6285303
-1.213379	u}u a}a z}z	-0.3854922
-1.256188	u}u a}a g}g	-0.3854922
-1.948557	u}u a}a k}_	-0.08446221
-0.5241054	u}u n}n </s>
-0.6258941	u}u n}n a}a	-0.6865223
-1.17132	u}u n}n t}t	-0.08446223
-1.51307	u}u n}n i}i	-0.08446221
-0.8222751	u}u n}n e}e	-0.3854922
-0.9869881	u}u n}n d}d	-0.0844623
-1.972662	u}u n}n b}p	-0.08446222
-1.975115	u}u n}n z|k}k	-0.08446223
-0.5260936	u}u t}t </s>
-0.9222229	u}u t}t a}a	-0.08446222
-0.9794933	u}u t}t i}i	-0.3854922
-1.33642	u}u t}t z}z	-0.08446221
-0.4841821	u}u t}t e}e	-0.3854922
-0.8203306	u}u i}i l|l}l	-0.08446221
-0.866079	u}u i}i ñ}n	-0.08446221
-0.7996173	u}u k}k </s>
-1.196045	u}u k}k i}i	-0.08446221
-0.3621132	u}u k}k o}o	-0.2305903
-0.6612616	u}u k}k e|i}e	-0.5615835
-1.100967	u}u r}r </s>
-0.7174799	u}u r}r a}a	-0.1813722
-0.9369024	u}u r}r t}t	-0.2605535
-0.7982832	u}u r}r i}i	-0.3854922
-1.120073	u}u r}r r}r	-0.08446222
-1.042636	u}u r}r e}e	-0.08446223
-1.50131	u}u r}r u}u	-0.08446221
-1.765021	u}u r}r d}d	-0.08446221
-1.225356	u}u r}r g}g	-0.08446226
-1.614058	u}u r}r t|h}t	-0.0844622
-1.765021	u}u r}r k|h}k	-0.08446222
-0.4252986	u}u z}z </s>
-1.010582	u}u z}z t}t	-0.3854922
-1.338673	u}u z}z i}i	-0.08446222
-1.374218	u}u z}z e}e	-0.08446221
-0.5767747	u}u z}z u}u	-0.4524389
-1.751771	u}u z}z è}e	-0.08446221
-1.011205	u}u e}e </s>
-0.5365584	u}u e}e n}n	-0.510431
-0.8079537	u}u e}e t}t	-0.2605535
-1.656195	u}u e}e i}i	-0.08446221
-0.8059344	u}u e}e k}k	-0.5615835
-1.464428	u}u e}e z}z	-0.08446222
-1.033463	u}u e}e l}l	-0.3854922
-0.3131459	u}u t|s}s t}t	-0.08446221
-0.7737343	u}u t|s}s i}i	-0.08446221
-1.236126	u}u s}s </s>
-0.4440633	u}u s}s a}a	-0.1813723
-0.5785147	u}u s}s t}t	-0.2094009
-0.8007704	u}u s}s i}i	-0.1813722
-0.5064996	u}u d}d a}a	-0.08446221
-0.5529526	u}u d}d e}e	-0.08446221
-0.3763959	u}u h}h a}a	-0.08446221
-0.6982072	u}u t|z}z t}t	-0.08446221
-0.2324191	u}u t|z}z u}u	-0.2605535
-0.3368988	u}u g}g a}a	-0.3854922
-0.3987352	u}u g}g u}u	-0.2605535
-0.06762821	u}u l}l a}a	-0.6865222
-0.1859945	u}u k|h}k a}a	-0.0844622
-0.9012801	u}u k|h}k o}o	-0.08446221
-0.2347918	u}u r}d i}i	-0.08446221
-0.5210675	u}u n|h}n a}a	-0.08446221
-0.528507	u}u n|h}n i}i	-0.08446222
-0.7629345	u}u i|t}t i}i	-0.08446221
-0.7836507	u}u i|t}t u}u	-0.08446221
-0.06193264	u}u k}e|k </s>
-0.1308734	u}u t}e|t a}a	-0.0844622
-0.2956595	u}u t|k}k i}i	-0.0844622
-0.3563064	u}u n}n|_ o}h|o	-0.0844622
-0.3284488	u}u t}t|x i}i	-0.08446222
-0.3542921	u}u s}s|_ _}e|z	-0.08446221
-0.3356083	u}u k|a}_ t}t	-0.08446223
-1.459353	d}d a}a b}b	-0.08446221
-0.8715182	d}d a}a n}n	-0.08446223
-0.8690513	d}d a}a t}t	-0.08446221
-0.9303591	d}d a}a i}i	-0.3854922
-0.8319872	d}d a}a r}r	-0.0844622
-1.280377	d}d a}a z}z	-0.08446221
-1.434242	d}d a}a g}g	-0.08446221
-1.507214	d}d a}a l}l	-0.08446222
-1.633009	d}d a}a k|h}k	-0.08446223
-1.765908	d}d a}a d|u}u	-0.08446221
-1.765908	d}d a}a v}v	-0.0844622
-1.311885	d}d i}i n}n	-0.08446221
-0.81683	d}d i}i t}t	-0.2605535
-1.397805	d}d i}i l|l}l	-0.08446222
-0.8742669	d}d i}i r}r	-0.08446223
-1.571439	d}d i}i s}s	-0.08446221
-1.626	d}d i}i m}m	-0.08446221
-0.9198205	d}d i}i o}o	-0.08446221
-1.634542	d}d i}i _}e|z	-0.0844622
-1.592453	d}d i}i a}e|z	-0.08446221
-1.695801	d}d i}i r}r|e	-0.08446221
-0.875517	d}d e}e </s>
-0.6584157	d}d e}e a}a	-0.209401
-1.597243	d}d e}e b}b	-0.08446221
-0.8137156	d}d e}e n}n	-0.08446221
-0.6482344	d}d e}e r}r	-0.2605535
-1.350375	d}d e}e z}z	-0.08446222
-0.6702749	d}d u}u </s>
-1.105547	d}d u}u t}t	-0.08446222
-1.166759	d}d u}u k}k	-0.08446221
-1.088355	d}d u}u r}r	-0.0844622
-0.7151124	d}d u}u z}z	-0.3854922
-1.357485	d}d u}u g}g	-0.08446221
-1.540293	d}d u}u k|a}_	-0.08446222
-0.5591615	d}d i}e f}s|b	-0.08446223
-0.9162682	d}d o}o a}a	-0.08446221
-0.9305434	d}d o}o i}i	-0.08446221
-1.009669	d}d o}o k}k	-0.08446222
-1.191148	d}d o}o h|a}a	-0.08446221
-0.5681463	d}d a}e r}r	-0.08446221
-0.571382	d}d e}a k|h}k	-0.08446221
-0.4918942	d}d è}e|e k}k	-0.08446222
-1.115731	m}m a}a </s>
-1.136336	m}m a}a n}n	-0.08446221
-0.8570767	m}m a}a i}i	-0.3854922
-1.064702	m}m a}a r}r	-0.08446221
-1.241199	m}m a}a z}z	-0.08446221
-1.475562	m}m a}a s}s	-0.08446222
-0.955063	m}m a}a k|h}k	-0.08446223
-0.9486215	m}m a}a i|t}t	-0.3854922
-1.673131	m}m a}a i}k|i	-0.0844622
-0.9590131	m}m i}i l|l}l	-0.08446222
-0.8809692	m}m i}i r}r	-0.08446223
-1.056064	m}m i}i n}n|t	-0.08446221
-0.5621125	m}m e}e n}n	-0.209401
-1.039667	m}m e}e r}r	-0.08446221
-0.6604168	m}m e}e s}s	-0.08446221
-1.375053	m}m e}e r|e}_	-0.08446221
-0.4974748	m}m u}u n}n	-0.08446221
-0.926391	m}m o}o k}k	-0.08446221
-0.7596864	m}m o}o r}r	-0.08446221
-1.07024	m}m o}o r}d	-0.08446223
-0.8167009	m}m u}o r}r	-0.08446221
-0.6522997	m}m u}o s}s	-0.08446222
-0.4471235	m}m o}u l}l	-0.08446221
-0.5456363	d|u}_ k}_ o}o	-0.08446221
-1.047455	h}h a}a n}n	-0.08446221
-1.161131	h}h a}a i}i	-0.08446221
-0.6649687	h}h a}a r}r	-0.08446221
-1.48151	h}h a}a t|s}s	-0.08446222
-1.350986	h}h a}a u}u	-0.08446221
-1.455441	h}h a}a n}i|n	-0.08446221
-1.544718	h}h a}a _}u	-0.08446222
-1.549454	h}h a}a z|-}z	-0.08446222
-0.9552253	h}h i}i r}r	-0.08446222
-1.102537	h}h i}i t|z}z	-0.08446222
-1.117188	h}h i}i g}g	-0.08446221
-1.078122	h}h i}i l}l	-0.08446221
-0.7013167	h}h e}e r}r	-0.08446221
-0.7646058	h}h e}e z}z	-0.08446221
-1.132859	h}h o}o a}a	-0.08446221
-1.324814	h}h o}o b}b	-0.0844622
-1.151227	h}h o}o i}i	-0.08446221
-0.678565	h}h o}o r}r	-0.3854922
-0.8170983	h}h o}o t|z}z	-0.08446221
-1.433429	h}h o}o g}g	-0.08446223
-1.390942	h}h o}o i|n}i	-0.08446221
-0.4515788	h}h u}o n}n	-0.08446224
-0.3632311	t|z}z b}b e}e	-0.08446222
-0.2157579	t|z}z t}t e}e	-0.3275002
-1.030257	t|z}z t}t u}u	-0.08446219
-1.234582	t|z}z t}t o}o	-0.08446221
-0.6250391	t|z}z k}k i}i	-0.08446221
-0.8111682	t|z}z k}k u}u	-0.08446221
-0.5716369	t|z}z u}u </s>
-0.5018334	t|z}z u}u n}n	-0.452439
-0.8335981	t|z}z u}u t}t	-0.3854922
-1.057203	t|z}z u}u e}e	-0.08446221
-1.779357	t|z}z u}u d}d	-0.08446222
-1.683004	t|z}z u}u l}l	-0.08446219
-1.006275	t|z}z a}k|i t|z}z	-0.08446221
-0.9907737	t|z}z a}k|i g}g	-0.08446222
-1.024696	t|z}z a}k|i n}o|n	-0.08446223
-1.024696	t|z}z a}k|i _}o	-0.08446223
-0.355802	t|z}z e}t|e i}n|_	-0.08446221
-1.021834	g}g a}a n}n	-0.2094009
-0.5141893	g}g a}a t}t	-0.3854922
-1.068963	g}g a}a i}i	-0.209401
-0.584448	g}g a}a r}r	-0.2605535
-1.472796	g}g a}a z}z	-0.08446221
-1.675497	g}g a}a u}u	-0.08446222
-1.748172	g}g a}a i|t}t	-0.0844622
-1.779952	g}g a}a n}i|n	-0.08446222
-1.398502	g}g i}i b}b	-0.08446222
-1.188604	g}g i}i n}n	-0.08446222
-1.021221	g}g i}i t}t	-0.08446221
-0.7451706	g}g i}i l|l}l	-0.08446221
-1.132258	g}g i}i r}r	-0.08446221
-1.193019	g}g i}i z}z	-0.0844622
-1.495435	g}g i}i o|g}g	-0.0844622
-0.3168658	g}g e}e n}n	-0.2605535
-0.877408	g}g e}e r}r	-0.08446221
-1.070853	g}g u}u </s>
-0.6307624	g}g u}u n}n	-0.3854922
-1.192005	g}g u}u t}t	-0.08446221
-0.9617081	g}g u}u i}i	-0.08446221
-1.299483	g}g u}u s}s	-0.08446221
-1.519634	g}g u}u t|z}z	-0.08446222
-0.9283366	g}g u}u l}l	-0.3854922
-1.662531	g}g u}u t}t|x	-0.08446223
-0.539483	g}g i}e r}r	-0.08446221
-1.030481	g}g o}o </s>
-1.107183	g}g o}o a}a	-0.08446222
-1.106356	g}g o}o t}t	-0.08446221
-1.244043	g}g o}o k}k	-0.08446221
-0.9710116	g}g o}o r}r	-0.08446221
-1.370342	g}g o}o e}e	-0.08446221
-0.8518421	g}g o}o t|z}z	-0.08446221
-1.561029	g}g o}o i|t}t	-0.0844622
-1.572331	g}g o}o l}z	-0.08446221
-0.4276239	g}g o}e i}i	-0.08446223
-0.4976966	i}e a}a n}n	-0.08446223
-0.5561442	i}e n}n </s>
-0.7237341	i}e n}n i}i	-0.08446221
-0.60079	i}e t}t k}_	-0.08446222
-0.4157275	i}e l|l}l a}a	-0.08446221
-0.5397549	i}e r}r u}u	-0.08446222
-0.2637959	i}e g}g a}a	-0.08446221
-0.3293966	i}e f}s|b e}e	-0.08446222
-0.7101378	p|h}p a}a t}t	-0.08446221
-0.7678893	p|h}p a}a i}i	-0.08446221
-0.5693071	p|h}p i}i l}l	-0.08446221
-0.9666202	p|h}p e}e </s>
-0.9427647	p|h}p e}e a}a	-0.08446222
-0.8276115	p|h}p e}e n}n	-0.08446221
-0.9731466	p|h}p e}e t}t	-0.08446222
-0.9048181	p|h}p e}e r}r	-0.08446221
-0.498218	p|h}p u}u r}r	-0.08446222
-0.6670583	p|h}p o}o r}r	-0.08446221
-0.8935273	p|h}p o}o d}d	-0.08446222
-0.8645623	t|h}t a}a </s>
-0.8798774	t|h}t a}a n}n	-0.08446223
-0.8764519	t|h}t a}a t}t	-0.08446221
-0.8258497	t|h}t a}a r}r	-0.08446221
-0.8548272	t|h}t i}i </s>
-0.8809692	t|h}t i}i r}r	-0.08446221
-0.9030189	t|h}t i}i e}e	-0.08446221
-0.8124947	t|h}t e}e </s>
-0.5899936	t|h}t e}e a}a	-0.209401
-1.274177	t|h}t e}e t}t	-0.08446221
-0.5812815	t|h}t e}e r}r	-0.08446224
-1.3119	t|h}t e}e z}z	-0.08446222
-0.8355736	t|h}t u}u </s>
-0.970728	t|h}t u}u a}a	-0.08446221
-0.9392765	t|h}t u}u t}t	-0.08446221
-0.9924608	t|h}t u}u k}k	-0.08446221
-0.9241673	t|h}t u}u r}r	-0.08446222
-1.174034	t|h}t o}o n}n	-0.08446221
-1.081924	t|h}t o}o i}i	-0.08446221
-0.2972737	t|h}t o}o r}r	-0.3275003
-0.3091521	t|h}t a}e t}t	-0.08446221
-0.7616206	o}o a}a </s>
-0.9643218	o}o a}a n}n	-0.3854922
-0.6379566	o}o a}a k}k	-0.3854922
-0.9347772	o}o a}a r}r	-0.2605535
-0.7906992	o}o a}a z}z	-0.2605535
-1.559283	o}o a}a g}g	-0.08446223
-1.688387	o}o a}a i|t}t	-0.0844622
-0.891406	o}o b}b i}i	-0.08446221
-0.3458916	o}o b}b e}e	-0.08446221
-1.164249	o}o b}b l}l	-0.08446221
-0.7228828	o}o n}n </s>
-1.262317	o}o n}n b}b	-0.08446222
-1.000233	o}o n}n e}e	-0.08446223
-1.116712	o}o n}n d}d	-0.08446221
-1.338143	o}o n}n p}p	-0.08446222
-1.33992	o}o n}n s}t|s	-0.08446221
-1.425707	o}o n}n é}e	-0.08446221
-0.8755878	o}o t}t </s>
-0.7524633	o}o t}t a}a	-0.08446221
-1.19427	o}o t}t i}i	-0.08446221
-0.7875337	o}o t}t z}z	-0.08446221
-0.7132911	o}o t}t e}e	-0.08446221
-1.648746	o}o t}t u}o	-0.08446222
-1.653723	o}o t}t z|e}z	-0.08446221
-1.657073	o}o t}t z}z|_	-0.08446221
-1.143273	o}o i}i </s>
-1.162687	o}o i}i a}a	-0.08446221
-1.072373	o}o i}i t}t	-0.08446221
-1.244171	o}o i}i z}z	-0.08446221
-1.353585	o}o i}i l}l	-0.08446221
-0.5863868	o}o i}i ñ}n	-0.2605535
-1.546588	o}o i}i ñ|h}n	-0.08446222
-0.5455148	o}o k}k </s>
-1.019701	o}o k}k a}a	-0.08446222
-1.368718	o}o k}k t}t	-0.08446222
-0.8265976	o}o k}k o}o	-0.08446221
-1.319501	o}o k}k a}i|o	-0.08446221
-1.419764	o}o k}k a}a|l	-0.08446221
-1.464823	o}o r}r </s>
-0.6370882	o}o r}r a}a	-0.08446218
-0.9516387	o}o r}r t}t	-0.08446225
-0.9443491	o}o r}r i}i	-0.3854922
-1.714047	o}o r}r k}k	-0.08446221
-0.7927263	o}o r}r r}r	-0.1636434
-1.335555	o}o r}r e}e	-0.08446221
-1.218798	o}o r}r d}d	-0.3854922
-1.612688	o}o r}r t|h}t	-0.0844622
-1.919636	o}o r}r e}l|e	-0.08446221
-1.799235	o}o r}r h|o}o	-0.08446221
-1.92394	o}o r}r i}i|o	-0.08446223
-0.6005731	o}o z}z </s>
-1.123386	o}o z}z k}k	-0.08446221
-0.5394624	o}o z}z u}u	-0.08446221
-1.308193	o}o z}z i|n}i	-0.08446221
-0.8501206	o}o e}e k}k	-0.08446221
-0.8840462	o}o e}e z}z	-0.08446222
-0.8886021	o}o e}e l}l	-0.08446221
-0.7963699	o}o s}s t}t	-0.08446222
-0.8370742	o}o s}s i}i	-0.08446221
-0.7898463	o}o s}s e}e	-0.08446222
-0.8494654	o}o s}s u}u	-0.08446221
-0.393662	o}o d}d e}e	-0.08446221
-0.50397	o}o m}m e}e	-0.08446221
-0.9978385	o}o m}m u}u	-0.08446222
-0.8487027	o}o m}m o}o	-0.08446221
-0.2623355	o}o h}h o}o	-0.08446222
-1.179616	o}o t|z}z </s>
-1.224439	o}o t|z}z b}b	-0.08446222
-0.4080348	o}o t|z}z t}t	-0.3854922
-0.9155802	o}o t|z}z a}k|i	-0.08446221
-0.202637	o}o g}g o}e	-0.3854922
-0.2787202	o}o t|h}t e}e	-0.08446223
-0.6557623	o}o t|h}t o}o	-0.08446221
-0.3734583	o}o l}l a}a	-0.08446221
-0.2207745	o}o k|h}k a}a	-0.0844622
-0.2347918	o}o r}d i}i	-0.08446222
-0.377106	o}o n|h}n e}e	-0.08446223
-0.06385893	o}o n}n|t z}z	-0.0844622
-0.2917922	o}o i|t}t e}e	-0.08446224
-0.2292019	o}o i|n}i </s>
-1.046111	o}o i|n}i e}e	-0.0844622
-0.5854015	o}o i|ñ}i a}a	-0.0844622
-0.6046401	o}o i|ñ}i e}e	-0.08446222
-0.2765386	o}o a}_ </s>
-0.5417933	o}o _}z|a s}l|e	-0.08446221
-0.1308734	o}o t}e|t a}a	-0.0844622
-0.4629256	o}o r}t a|z}o	-0.0844622
-0.2898079	o}o l|h}l a}a	-0.08446222
-0.3488005	o}o r|z}s g}g	-0.08446222
-0.5721694	o}o s}t|s _}u	-0.0844622
-0.2353008	o}o k}a|k </s>
-0.6976656	o}o r}r|e </s>
-0.673955	o}o r}r|e a}a	-0.08446221
-0.6643935	o}o n|e}_ </s>
-0.642388	o}o n|e}_ a}a	-0.08446219
-0.484373	o}o h|a}a n}n	-0.08446221
-0.4427551	o}o l}z o}o	-0.08446221
-0.3552981	o}o f}f|o a}i	-0.08446221
-0.355802	o}o i}_|d t}i|t	-0.08446221
-0.6285331	o}o h|a}_ k}k	-0.08446221
-0.65482	o}o h|a}_ t|k}k	-0.08446221
-0.3293966	o}o b}b|r e}e	-0.08446223
-0.5879096	g}-|g i}i b}b	-0.08446222
-0.323646	l}l a}a </s>
-0.9340247	l}l a}a b}b	-0.08446221
-1.250901	l}l a}a t}t	-0.08446222
-1.286378	l}l a}a k}k	-0.08446222
-1.191589	l}l a}a r}r	-0.08446221
-1.345366	l}l a}a z}z	-0.08446221
-0.5046216	l}l b}b a}a	-0.08446221
-0.8815062	l}l b}b o}u	-0.08446221
-0.7661501	l}l t}t z}z	-0.0844622
-0.6636438	l}l t}t e}e	-0.08446221
-0.9179007	l}l t}t s}s	-0.08446223
-1.083301	l}l i}i k}k	-0.08446221
-1.334394	l}l i}i m}m	-0.08446221
-1.273358	l}l i}i g}g	-0.08446222
-1.304441	l}l i}i a}e	-0.08446221
-0.673468	l}l i}i z}t|z	-0.0844622
-0.442316	l}l k}k i}i	-0.08446221
-0.9291032	l}l e}e n}n	-0.08446222
-1.137069	l}l e}e z}z	-0.08446222
-1.447503	l}l e}e m}m	-0.08446221
-1.487867	l}l e}e h}h	-0.08446221
-1.316534	l}l e}e g}g	-0.08446222
-1.411787	l}l e}e k|h}k	-0.08446222
-0.8041649	l}l e}e f}f	-0.08446223
-0.3184914	l}l u}u </s>
-0.93016	l}l u}u k}k	-0.08446221
-0.4996424	l}l d}d o}o	-0.08446222
-0.6019742	l}l o}o h|a}_	-0.08446221
-0.3210676	l}l k|h}k a}a	-0.08446221
-0.7363965	l}l k|h}k a}a|r	-0.08446223
-0.4836718	l}l o}u </s>
-0.7759861	l}l o}u a}a	-0.08446221
-0.3547948	l}l e}e|s k}e|k	-0.08446221
-0.4552209	l}l e}a </s>
-0.5747417	l}l e}i k}t	-0.08446221
-0.5559524	l}l e|i}e h}h	-0.08446221
-0.5359681	l}l t}_ z}z	-0.08446222
-0.5012031	l}l e}_ a}a	-0.08446222
-0.9323447	l}l s}t|s u}u	-0.08446221
-0.9856141	l}l s}t|s o}u	-0.08446223
-0.997501	l}l s}t|s e}u|k	-0.08446221
-0.1675682	l}l è}e n}n	-0.08446222
-0.543782	a}h|a i}i z}z	-0.08446221
-0.3438676	a}h|a t}r r}r	-0.08446222
-0.9280873	k|h}k a}a </s>
-1.023291	k|h}k a}a b}b	-0.08446219
-0.6027202	k|h}k a}a t}t	-0.3854922
-0.589586	k|h}k a}a r}r	-0.3854922
-1.611006	k|h}k a}a s}s	-0.08446221
-1.657945	k|h}k a}a m}m	-0.08446223
-1.657945	k|h}k a}a t|z}z	-0.08446221
-0.7404026	k|h}k e}e n}n	-0.08446221
-1.011966	k|h}k e}e i}n|_	-0.08446221
-1.059033	k|h}k e}e _}n|_	-0.08446222
-0.9459146	k|h}k u}u </s>
-1.104858	k|h}k u}u a}a	-0.08446221
-1.067066	k|h}k u}u t}t	-0.08446222
-1.131309	k|h}k u}u k}k	-0.08446221
-1.0491	k|h}k u}u r}r	-0.08446221
-1.0491	k|h}k u}u z}z	-0.08446222
-0.7495416	k|h}k u}u s}s	-0.08446221
-1.537592	k|h}k u}u s}s|_	-0.0844622
-0.7994095	k|h}k o}o </s>
-0.8600747	k|h}k o}o i}i	-0.08446221
-0.7596864	k|h}k o}o r}r	-0.08446222
-0.7322376	k|h}k a}a|r z}z	-0.08446222
-0.7607416	k|h}k a}a|r r}r|e	-0.08446221
-0.3532884	m|e}z n|d}i u}o	-0.08446221
-0.6084854	n|d}i u}o a}a	-0.08446221
-0.7871332	n|d}i u}o e}e	-0.08446221
-0.7019958	u}o a}a </s>
-0.7302104	u}o a}a k}k	-0.08446222
-0.4997219	u}o n}n a}a	-0.3854922
-0.993451	u}o n}n i}i	-0.08446222
-0.9947358	u}o n}n e}e	-0.08446222
-1.283744	u}o n}n e|i}e	-0.08446222
-0.5863897	u}o r}r u}o	-0.08446222
-0.4594501	u}o e}e n}n	-0.08446221
-0.8381863	u}o s}s </s>
-0.8261084	u}o s}s a}a	-0.08446222
-0.7898463	u}o s}s e}e	-0.08446221
-1.176802	u}o s}s i|n}n	-0.08446222
-0.319914	u}o m}m e}e	-0.08446221
-0.5368697	u}o t|z}_ a}_	-0.08446221
-0.8645623	ñ}n a}a </s>
-0.8764519	ñ}n a}a t}t	-0.08446221
-0.9062176	ñ}n a}a k}k	-0.08446222
-0.8258497	ñ}n a}a r}r	-0.0844622
-0.5213964	ñ}n i}i a}a	-0.08446221
-0.9427647	ñ}n e}e a}a	-0.08446222
-0.8276115	ñ}n e}e n}n	-0.08446221
-0.9731466	ñ}n e}e t}t	-0.08446222
-0.9660153	ñ}n e}e k}k	-0.08446222
-0.9048181	ñ}n e}e r}r	-0.08446221
-0.656703	ñ}n u}u </s>
-0.7133259	ñ}n u}u z}z	-0.08446222
-0.4893483	ñ}n o}o </s>
-0.2353008	ñ}n -}- e}e	-0.08446221
-0.3563064	l}h|a b}l|_ a}b|a	-0.08446221
-0.3492968	b}l|_ a}b|a l}l	-0.08446221
-0.5233704	a}b|a l}l u}u	-0.08446223
-0.4744659	o}u a}a r}r	-0.08446221
-0.1861892	o}u n}n t}t	-0.08446223
-0.4413792	o}u r}r i}i	-0.08446221
-0.7509966	o}u l}l t}t	-0.08446221
-0.8271042	o}u l}l s}t|s	-0.08446221
-0.1636275	a}e|n k}_ g}g	-0.3854922
-0.5306453	k}_ a}a i}i	-0.08446221
-0.4928728	k}_ i}i t}t	-0.08446221
-0.7389569	k}_ e}e </s>
-0.6514126	k}_ e}e n}n	-0.08446221
-0.1121694	k}_ g}g a}a	-0.3854922
-0.4893483	k}_ o}o </s>
-0.8066373	r}d i}i t}t	-0.08446224
-0.8789958	r}d i}i k}k	-0.08446221
-0.9421813	r}d i}i o}o	-0.08446223
-0.1308734	r}d r}e|z a}a	-0.08446223
-0.7101378	n|h}n a}a t}t	-0.08446222
-0.6750047	n|h}n a}a r}r	-0.08446221
-0.7045886	n|h}n i}i t}t	-0.08446221
-0.8735455	n|h}n i}i d}d	-0.08446222
-0.5471836	n|h}n e}e t}t	-0.3854922
-1.280266	n|h}n e}e t|s}s	-0.08446221
-0.5865111	n|h}n e}e s}s	-0.3854922
-1.049285	n}n|t z}z a}a	-0.08446221
-0.4400635	n}n|t z}z i}i	-0.08446219
-0.6064092	n}n|t z}z u}u	-0.2605535
-1.422022	n}n|t z}z a}e	-0.08446221
-0.3632311	a}e b}b e}e	-0.08446222
-0.6828701	a}e n}n a}a	-0.08446222
-0.7245968	a}e n}n e}e	-0.08446222
-0.8633022	a}e t}t a}a	-0.08446222
-0.9934196	a}e t}t i}i	-0.08446221
-0.494129	a}e t}t z}z	-0.3854922
-1.096315	a}e t}t s}s	-0.08446223
-0.7520398	a}e i}i a}a	-0.08446221
-0.8848652	a}e i}i u}u	-0.08446221
-0.5990187	a}e k}k i}e	-0.08446222
-0.4413792	a}e r}r i}i	-0.08446222
-0.4656281	a}e z}z a}a	-0.08446221
-0.3734583	a}e l}l a}a	-0.08446221
-0.2207745	a}e k|h}k a}a	-0.08446221
-0.6982865	p}p a}a t}t	-0.08446221
